{"learner":{"attributes":{"best_iteration":"99","best_ntree_limit":"100","scikit_learn":"{\"n_estimators\": 100, \"objective\": \"reg:squarederror\", \"max_depth\": null, \"max_leaves\": null, \"max_bin\": null, \"grow_policy\": null, \"learning_rate\": null, \"verbosity\": null, \"booster\": null, \"tree_method\": null, \"gamma\": null, \"min_child_weight\": null, \"max_delta_step\": null, \"subsample\": null, \"sampling_method\": null, \"colsample_bytree\": null, \"colsample_bylevel\": null, \"colsample_bynode\": null, \"reg_alpha\": null, \"reg_lambda\": null, \"scale_pos_weight\": null, \"base_score\": null, \"missing\": NaN, \"num_parallel_tree\": null, \"random_state\": null, \"n_jobs\": null, \"monotone_constraints\": null, \"interaction_constraints\": null, \"importance_type\": null, \"gpu_id\": null, \"validate_parameters\": null, \"predictor\": null, \"enable_categorical\": false, \"max_cat_to_onehot\": null, \"eval_metric\": null, \"early_stopping_rounds\": null, \"callbacks\": null, \"_estimator_type\": \"regressor\"}"},"feature_names":[],"feature_types":[],"gradient_booster":{"model":{"gbtree_model_param":{"num_parallel_tree":"1","num_trees":"100","size_leaf_vector":"0"},"tree_info":[0,0,0,0,0,0,0,0,0,0,0,0,0,0,0,0,0,0,0,0,0,0,0,0,0,0,0,0,0,0,0,0,0,0,0,0,0,0,0,0,0,0,0,0,0,0,0,0,0,0,0,0,0,0,0,0,0,0,0,0,0,0,0,0,0,0,0,0,0,0,0,0,0,0,0,0,0,0,0,0,0,0,0,0,0,0,0,0,0,0,0,0,0,0,0,0,0,0,0,0],"trees":[{"base_weights":[2.3146273E1,1.2030524E1,5.4080143E1,4.444294E1,1.038654E1,8.600527E1,2.8345036E1,3.0141489E1,8.3051E2,2.7938793E1,8.355143E0,1.6610904E2,7.59806E1,5.5421383E1,2.216338E1,2.3021347E1,1.1326462E2,1.8442857E0,2.83912E1,1.3202316E1,7.503062E0,7.6242424E1,2.5942532E2,7.029487E0,8.1588135E1,3.9287807E1,1.1844462E2,3.8432926E1,1.1331329E1,1.1921829E1,3.4849865E1,2.0511334E2,7.791818E1,-1.4750001E-1,3.375E0,2.1924603E1,2.9744785E1,9.189467E0,5.763757E1,4.3007665E0,8.317596E0,6.428571E0,9.151852E1,5.9545E1,2.794289E2,5.2233334E1,3.1743243E0,8.260059E1,3.22E1,6.17625E0,4.4737778E1,9.445273E1,2.0032E2,5.2403423E1,3.1692293E1,3.4600375E0,3.7460125E1,2.4585926E1,5.6030354E0,6.6718575E1,2.7091614E1,-3.3E-1,1.9999999E-1,1.375E0,2.2233871E1,3.068254E1,2.2756756E1,6.317508E0,1.7553715E1,3.4306E1,7.0347824E1,5.919838E0,2.836232E0,1.9488285E1,7.491854E0,9.756E1,1.0666667E1,5.1333332E1,2.956232E2,-4.606667E-1,5.4069567E0,8.2014E1,1.7475E2,1.6428571E0,6.854E1,1.4415E1,3.166154E0,8.293667E1,3.8369114E1,8.0203E1,1.5796666E2,2.7517036E1,6.558489E1,3.732E1,2.5809124E1,7.7231817E0,2.6071875E0,7.707714E1,3.3206352E1],"categories":[],"categories_nodes":[],"categories_segments":[],"categories_sizes":[],"default_left":[1,1,1,1,1,1,1,1,0,1,1,1,1,1,1,1,1,1,1,1,1,1,1,1,1,1,1,1,1,1,1,0,0,1,0,1,1,1,1,1,1,0,1,0,1,0,1,1,1,1,1,1,0,1,1,1,1,0,0,0,0,0,0,0,0,0,0,0,0,0,0,0,0,0,0,0,0,0,0,0,0,0,0,0,0,0,0,0,0,0,0,0,0,0,0,0,0,0,0],"id":0,"left_children":[1,3,5,7,9,11,13,15,-1,17,19,21,23,25,27,29,31,33,35,37,39,41,43,45,47,49,51,53,55,57,59,-1,-1,61,-1,63,65,67,69,71,73,-1,75,-1,77,-1,79,81,83,85,87,89,-1,91,93,95,97,-1,-1,-1,-1,-1,-1,-1,-1,-1,-1,-1,-1,-1,-1,-1,-1,-1,-1,-1,-1,-1,-1,-1,-1,-1,-1,-1,-1,-1,-1,-1,-1,-1,-1,-1,-1,-1,-1,-1,-1,-1,-1],"loss_changes":[1.6477812E6,1.875296E5,1.038525E6,1.8860905E6,1.1953375E5,4.41082E5,1.1643744E5,9.682305E4,0E0,4.0559062E3,1.23410625E4,5.00154E5,1.9429625E5,1.2752931E5,1.00722E5,2.0065906E4,2.6222766E4,2.1839796E1,2.3414062E3,7.953241E4,6.6521094E3,3.460561E4,1.03310875E5,6.6306533E3,2.0642E4,1.8671672E4,3.2152188E4,1.9904125E4,7.10313E4,6.424032E3,1.6735898E4,0E0,0E0,3.1967497E-1,0E0,3.6981445E2,1.136625E3,9.810098E3,8.559016E3,1.2209688E3,1.869886E4,0E0,1.2147906E4,0E0,8.455875E4,0E0,3.0276794E2,1.031675E4,1.2102311E4,3.5115076E2,1.8712625E4,7.241828E3,0E0,2.2142156E4,4.2348906E3,9.506289E2,1.0922297E4,0E0,0E0,0E0,0E0,0E0,0E0,0E0,0E0,0E0,0E0,0E0,0E0,0E0,0E0,0E0,0E0,0E0,0E0,0E0,0E0,0E0,0E0,0E0,0E0,0E0,0E0,0E0,0E0,0E0,0E0,0E0,0E0,0E0,0E0,0E0,0E0,0E0,0E0,0E0,0E0,0E0,0E0],"parents":[2147483647,0,0,1,1,2,2,3,3,4,4,5,5,6,6,7,7,9,9,10,10,11,11,12,12,13,13,14,14,15,15,16,16,17,17,18,18,19,19,20,20,21,21,22,22,23,23,24,24,25,25,26,26,27,27,28,28,29,29,30,30,33,33,35,35,36,36,37,37,38,38,39,39,40,40,42,42,44,44,46,46,47,47,48,48,49,49,50,50,51,51,53,53,54,54,55,55,56,56],"right_children":[2,4,6,8,10,12,14,16,-1,18,20,22,24,26,28,30,32,34,36,38,40,42,44,46,48,50,52,54,56,58,60,-1,-1,62,-1,64,66,68,70,72,74,-1,76,-1,78,-1,80,82,84,86,88,90,-1,92,94,96,98,-1,-1,-1,-1,-1,-1,-1,-1,-1,-1,-1,-1,-1,-1,-1,-1,-1,-1,-1,-1,-1,-1,-1,-1,-1,-1,-1,-1,-1,-1,-1,-1,-1,-1,-1,-1,-1,-1,-1,-1,-1,-1],"split_conditions":[9.5E1,8.75E1,1.1E2,2.35075E4,2.75E1,6.05E1,1.9E2,2.7467651E3,2.4915302E2,1.5375E3,1.0535E3,1.2625E3,5.67375E3,7.01256E3,1.9E2,7.4E-1,2.1E1,4.891E2,1.05E1,2.9900002E1,2.701674E4,5.6E1,9.5E0,8.3E1,9.9675E3,7.45E-1,3.18E2,4.54E2,2.55E2,2.75E1,2.15E1,6.1534004E1,2.3375456E1,2.06585E2,1.0125E0,1.22606E3,2.8125E3,6.27255E3,2.4413E4,2.509E3,3.9955E3,1.9285715E0,2E1,1.78635E1,5.51075E2,1.5670001E1,2.9495E2,8.77442E4,4.9843E5,2E1,1.9E1,2.883914E4,6.0096004E1,2.3509629E4,2.0255E3,6.885E2,2.85E2,7.375778E0,1.6809107E0,2.0015574E1,8.127484E0,-9.900001E-2,6E-2,4.1250002E-1,6.6701617E0,9.204762E0,6.827027E0,1.8952526E0,5.2661147E0,1.02918005E1,2.1104347E1,1.7759515E0,8.508696E-1,5.8464856E0,2.2475564E0,2.9268E1,3.2000003E0,1.5400001E1,8.8686966E1,-1.3820001E-1,1.6220871E0,2.46042E1,5.2425003E1,4.9285713E-1,2.0562E1,4.3245E0,9.498462E-1,2.4881002E1,1.1510735E1,2.4060902E1,4.739E1,8.255112E0,1.9675468E1,1.1196E1,7.7427373E0,2.3169546E0,7.821563E-1,2.3123142E1,9.961906E0],"split_indices":[0,1,0,2,0,1,1,2,0,2,1,2,2,2,0,5,1,2,0,5,2,2,3,1,1,5,0,3,0,0,1,0,0,2,0,4,3,2,2,1,1,0,1,0,4,0,2,4,2,1,1,2,0,2,3,1,0,0,0,0,0,0,0,0,0,0,0,0,0,0,0,0,0,0,0,0,0,0,0,0,0,0,0,0,0,0,0,0,0,0,0,0,0,0,0,0,0,0,0],"split_type":[0,0,0,0,0,0,0,0,0,0,0,0,0,0,0,0,0,0,0,0,0,0,0,0,0,0,0,0,0,0,0,0,0,0,0,0,0,0,0,0,0,0,0,0,0,0,0,0,0,0,0,0,0,0,0,0,0,0,0,0,0,0,0,0,0,0,0,0,0,0,0,0,0,0,0,0,0,0,0,0,0,0,0,0,0,0,0,0,0,0,0,0,0,0,0,0,0,0,0],"sum_hessian":[4.793E3,3.527E3,1.266E3,1.69E2,3.358E3,5.64E2,7.02E2,1.67E2,2E0,3.47E2,3.011E3,6.1E1,5.03E2,1.29E2,5.73E2,1.55E2,1.2E1,6E0,3.41E2,4.48E2,2.563E3,3.2E1,2.9E1,3.8E1,4.65E2,1.04E2,2.5E1,2.28E2,3.45E2,8.1E1,7.4E1,2E0,1E1,3E0,3E0,6.2E1,2.79E2,4.12E2,3.6E1,5.21E2,2.042E3,6E0,2.6E1,3E0,2.6E1,2E0,3.6E1,4.55E2,1E1,1.5E1,8.9E1,2.1E1,4E0,7.2E1,1.56E2,2.66E2,7.9E1,2.6E1,5.5E1,1.3E1,6.1E1,2E0,1E0,1E0,6.1E1,2.43E2,3.6E1,3.08E2,1.04E2,1.4E1,2.2E1,2.46E2,2.75E2,1.39E2,1.903E3,2.4E1,2E0,2E0,2.4E1,1.4E1,2.2E1,4.54E2,1E0,6E0,4E0,3E0,1.2E1,1.1E1,7.8E1,1.9E1,2E0,2.6E1,4.6E1,7.7E1,7.9E1,4.3E1,2.23E2,6E0,7.3E1],"tree_param":{"num_deleted":"0","num_feature":"6","num_nodes":"99","size_leaf_vector":"0"}},{"base_weights":[1.6405245E1,8.547396E0,3.8272713E1,3.3293953E1,7.29242E0,6.0684372E1,2.0206057E1,2.1825882E1,6.64408E2,1.9626373E1,5.86496E0,1.1879805E2,5.3415062E1,4.0127377E1,1.5659058E1,1.6353401E1,8.581673E1,3.4001083E0,1.9998167E1,7.8508396E0,4.538163E0,7.544501E1,2.2911816E2,6.7832446E0,5.7529793E1,2.3954128E1,7.725075E1,2.8505987E1,8.552771E0,7.950738E0,2.5093697E1,1.6409068E2,5.6667767E1,-1.13000005E-1,5.1754956E0,2.5827005E1,1.9067303E1,6.994499E0,6.393314E1,7.9919434E0,4.1956916E0,1.0334039E2,4.031639E1,8.1208694E1,2.434255E2,4.5000317E1,1.5761759E0,5.70113E1,1.485375E2,3.1180641E1,1.070947E1,6.077954E1,1.438649E2,3.5232216E1,1.8477657E1,3.5692666E0,2.6635649E1,1.6626865E1,2.7923806E0,1.0906721E2,2.2519821E1,-2.64E-1,1.6999999E-1,2.615625E0,6.8634915E0,2.1380182E1,5.6236187E1,2.0169226E1,1.277688E1,1.7802867E0,7.349265E0,5.394488E0,2.7257292E1,1.6817617E0,4.6191363E0,4.0532288E1,1.9349933E2,2.1499999E0,4.203146E1,1.3040652E2,-8.593483E0,2.262132E0,-1.1902101E1,5.7381912E1,2.3035714E-1,2.5188694E1,5.8022312E1,1.8896313E0,2.0513685E1,5.2471123E1,1.2637333E2,1.639222E2,6.2481087E1,2.3432968E1,4.240967E1,1.2091699E1,2.2792288E1,1.5094067E1,2.4336333E0,5.7257305E1,2.3379065E1],"categories":[],"categories_nodes":[],"categories_segments":[],"categories_sizes":[],"default_left":[1,1,1,1,1,1,1,1,0,1,1,1,1,1,1,1,1,1,1,1,1,1,1,1,1,1,1,1,1,1,1,0,0,1,1,1,1,1,0,1,1,1,1,1,0,0,1,1,0,1,1,1,1,1,1,1,1,0,0,0,0,0,0,0,0,0,0,0,0,0,0,0,0,0,0,0,0,0,0,0,0,0,0,0,0,0,0,0,0,0,0,0,0,0,0,0,0,0,0,0,0],"id":1,"left_children":[1,3,5,7,9,11,13,15,-1,17,19,21,23,25,27,29,31,33,35,37,39,41,43,45,47,49,51,53,55,57,59,-1,-1,61,63,65,67,69,-1,71,73,75,77,79,-1,-1,81,83,-1,85,87,89,91,93,95,97,99,-1,-1,-1,-1,-1,-1,-1,-1,-1,-1,-1,-1,-1,-1,-1,-1,-1,-1,-1,-1,-1,-1,-1,-1,-1,-1,-1,-1,-1,-1,-1,-1,-1,-1,-1,-1,-1,-1,-1,-1,-1,-1,-1,-1],"loss_changes":[8.234321E5,1.0932392E5,5.1178688E5,1.2159011E6,5.9024188E4,2.323365E5,6.3050938E4,5.7428297E4,0E0,2.0314219E3,7.9005625E3,2.792423E5,9.6316E4,7.620225E4,5.2158938E4,1.1257398E4,2.0362203E4,5.671898E1,1.3523438E3,5.7423586E4,2.1050117E3,4.091033E4,1.6207E4,8.287025E3,1.3379375E4,8.471641E3,3.404736E4,1.3109375E4,3.3338E4,3.578691E3,1.397027E4,0E0,0E0,2.1581198E-1,7.973999E0,4.7475273E3,1.8009688E3,2.1845078E3,0E0,7.959585E3,1.7454785E3,1.3372481E5,1.349707E3,1.4374861E4,0E0,0E0,3.7825342E2,9.709E3,0E0,8.0276914E3,2.901271E3,1.1353406E4,1.1843438E3,9.253531E3,2.0388594E3,3.7849473E3,6.6391367E3,0E0,0E0,0E0,0E0,0E0,0E0,0E0,0E0,0E0,0E0,0E0,0E0,0E0,0E0,0E0,0E0,0E0,0E0,0E0,0E0,0E0,0E0,0E0,0E0,0E0,0E0,0E0,0E0,0E0,0E0,0E0,0E0,0E0,0E0,0E0,0E0,0E0,0E0,0E0,0E0,0E0,0E0,0E0,0E0],"parents":[2147483647,0,0,1,1,2,2,3,3,4,4,5,5,6,6,7,7,9,9,10,10,11,11,12,12,13,13,14,14,15,15,16,16,17,17,18,18,19,19,20,20,21,21,22,22,23,23,24,24,25,25,26,26,27,27,28,28,29,29,30,30,33,33,34,34,35,35,36,36,37,37,39,39,40,40,41,41,42,42,43,43,46,46,47,47,49,49,50,50,51,51,52,52,53,53,54,54,55,55,56,56],"right_children":[2,4,6,8,10,12,14,16,-1,18,20,22,24,26,28,30,32,34,36,38,40,42,44,46,48,50,52,54,56,58,60,-1,-1,62,64,66,68,70,-1,72,74,76,78,80,-1,-1,82,84,-1,86,88,90,92,94,96,98,100,-1,-1,-1,-1,-1,-1,-1,-1,-1,-1,-1,-1,-1,-1,-1,-1,-1,-1,-1,-1,-1,-1,-1,-1,-1,-1,-1,-1,-1,-1,-1,-1,-1,-1,-1,-1,-1,-1,-1,-1,-1,-1,-1,-1],"split_conditions":[9.5E1,8.75E1,1.1E2,2.35075E4,2.75E1,6.05E1,1.9E2,2.7467651E3,1.9932242E2,2.55E3,5.5E1,3.4237E3,9.465E0,7.9700003E0,1.74E2,4.7625E2,2.1E1,4.891E2,2.8E2,3.5E1,4.705E2,7.5E0,3.55E1,9.05E1,8.77442E4,7.75E1,2.406755E3,1.759E3,2.55E2,1.2E1,4.5E0,4.9227207E1,1.700033E1,2.06585E2,1.3E1,1.1315E4,2.25E1,3.633125E3,1.9179943E1,6.5346E3,9.6256E3,6.15E-1,3.8E2,3E1,7.302766E1,1.3500095E1,7.1657E3,1.61575E4,4.4561253E1,2.33646E3,2.59726E3,2.883914E4,5.8E1,8.1899994E1,4.3306E2,1.9E2,2.85E2,4.98806E0,8.377142E-1,3.2720165E1,6.7559466E0,-7.92E-2,5.1E-2,7.846875E-1,2.0590475E0,6.414055E0,1.6870857E1,6.050768E0,3.8330643E0,5.3408605E-1,2.2047796E0,1.6183465E0,8.177188E0,5.045285E-1,1.385741E0,1.2159687E1,5.80498E1,6.45E-1,1.2609439E1,3.912196E1,-2.578045E0,6.786396E-1,-3.5706303E0,1.7214575E1,6.9107145E-2,7.5566087E0,1.7406694E1,5.668894E-1,6.1541057E0,1.5741338E1,3.7912E1,4.9176662E1,1.8744328E1,7.0298905E0,1.2722902E1,3.6275098E0,6.8376865E0,4.52822E0,7.3009E-1,1.7177193E1,7.0137196E0],"split_indices":[0,1,0,2,0,1,1,2,0,2,0,2,5,5,0,2,1,2,1,0,1,1,3,1,4,1,4,3,0,1,1,0,0,2,0,2,0,2,0,2,2,5,2,1,0,0,2,1,0,2,2,2,1,5,5,0,0,0,0,0,0,0,0,0,0,0,0,0,0,0,0,0,0,0,0,0,0,0,0,0,0,0,0,0,0,0,0,0,0,0,0,0,0,0,0,0,0,0,0,0,0],"split_type":[0,0,0,0,0,0,0,0,0,0,0,0,0,0,0,0,0,0,0,0,0,0,0,0,0,0,0,0,0,0,0,0,0,0,0,0,0,0,0,0,0,0,0,0,0,0,0,0,0,0,0,0,0,0,0,0,0,0,0,0,0,0,0,0,0,0,0,0,0,0,0,0,0,0,0,0,0,0,0,0,0,0,0,0,0,0,0,0,0,0,0,0,0,0,0,0,0,0,0,0,0],"sum_hessian":[4.793E3,3.527E3,1.266E3,1.69E2,3.358E3,5.64E2,7.02E2,1.67E2,2E0,3.47E2,3.011E3,6.1E1,5.03E2,1.29E2,5.73E2,1.55E2,1.2E1,8E0,3.39E2,1.204E3,1.807E3,4.5E1,1.6E1,4.1E1,4.62E2,9.1E1,3.8E1,2.03E2,3.7E2,8E1,7.5E1,2E0,1E1,3E0,5E0,4.3E1,2.96E2,1.187E3,1.7E1,1.61E2,1.646E3,2.4E1,2.1E1,2E0,1.4E1,4E0,3.7E1,4.61E2,1E0,5.8E1,3.3E1,3.2E1,6E0,1.2E2,8.3E1,2.91E2,7.9E1,2.9E1,5.1E1,1E0,7.4E1,2E0,1E0,3E0,2E0,3.9E1,4E0,2.5E2,4.6E1,7.6E1,1.111E3,1.43E2,1.8E1,2.38E2,1.408E3,1.5E1,9E0,1E0,2E1,1E0,1E0,3.6E1,1E0,4.58E2,3E0,4.9E1,9E0,1.8E1,1.5E1,3E1,2E0,4E0,2E0,4.7E1,7.3E1,3.5E1,4.8E1,2.5E1,2.66E2,6E0,7.3E1],"tree_param":{"num_deleted":"0","num_feature":"6","num_nodes":"101","size_leaf_vector":"0"}},{"base_weights":[1.1662823E1,6.091011E0,2.7168495E1,2.5134306E1,5.125411E0,4.294895E1,1.4447122E1,1.5941982E1,5.3152637E2,1.3841864E1,4.116629E0,8.62721E1,3.7534298E1,2.4461185E1,8.6218405E0,9.995985E0,5.299301E1,8.898076E0,1.4988966E1,6.066108E0,3.0205655E0,3.724375E1,1.3732755E2,4.5902452E0,4.0441677E1,1.5037857E1,4.1884308E1,4.711605E0,1.6789753E1,6.0081757E1,8.883115E0,1.1913652E2,3.711466E1,-2.0865108E-1,9.470507E0,1.7129923E1,1.3490282E1,4.227261E0,1.479771E1,1.3616772E0,5.070012E0,-5.647079E0,4.6984196E1,1.8555534E2,9.4867065E1,3.420024E1,5.733969E-1,3.9982647E1,1.26256874E2,3.1045876E1,7.8560376E0,7.45073E1,3.1499062E1,1.8423086E0,1.630155E1,2.2122099E1,8.955766E0,9.270712E1,-2.5844853E0,1.455095E1,3.3250144E0,5.121363E1,2.344754E1,6.675031E-1,-1.8566339E0,6.9856777E0,1.0605759E1,1.5473987E1,2.5473452E1,1.5293866E1,7.4425707E0,7.638951E0,3.0921955E0,3.8576668E1,1.2361431E1,2.2478065E0,-6.3557947E-1,1.1488791E1,3.9875813E0,7.585426E1,3.083605E1,2.053242E1,1.6692033E2,1.6018339E0,-1.8739388E1,6.2412777E1,3.8611103E1,2.0565699E1,7.300604E1,4.61244E-2,1.2171435E1,5.6485905E1,1.208786E2,2.13447E1,3.997877E1,6.5195193E0,8.655345E-1,3.7341732E1,1.4131864E1,1.282014E1,2.7496487E1,6.3527207E0,1.2345921E1],"categories":[],"categories_nodes":[],"categories_segments":[],"categories_sizes":[],"default_left":[1,1,1,1,1,1,1,1,0,1,1,1,1,1,1,1,1,1,1,1,1,1,1,1,1,1,1,1,1,1,1,0,1,1,1,1,1,1,1,1,1,0,1,0,1,0,1,1,0,1,1,1,1,1,1,1,1,0,0,0,0,0,0,0,0,0,0,0,0,0,0,0,0,0,0,0,0,0,0,0,0,0,0,0,0,0,0,0,0,0,0,0,0,0,0,0,0,0,0,0,0,0,0],"id":2,"left_children":[1,3,5,7,9,11,13,15,-1,17,19,21,23,25,27,29,31,33,35,37,39,41,43,45,47,49,51,53,55,57,59,-1,61,63,65,67,69,71,73,75,77,-1,79,-1,81,-1,83,85,-1,87,89,91,93,95,97,99,101,-1,-1,-1,-1,-1,-1,-1,-1,-1,-1,-1,-1,-1,-1,-1,-1,-1,-1,-1,-1,-1,-1,-1,-1,-1,-1,-1,-1,-1,-1,-1,-1,-1,-1,-1,-1,-1,-1,-1,-1,-1,-1,-1,-1,-1,-1],"loss_changes":[4.1401062E5,6.474479E4,2.537285E5,7.828628E5,2.9478703E4,1.29299375E5,4.079842E4,3.648158E4,0E0,1.8401406E3,6.417574E3,1.500816E5,4.8087875E4,4.1729562E4,1.4165445E4,7.604175E3,1.973404E4,3.56458E2,6.7053516E2,1.7326184E4,6.554717E3,1.4051926E4,4.3830188E4,4.9758223E3,1.31903125E4,1.9185473E4,2.8144906E4,1.00462295E4,5.8172656E3,6.373127E3,4.487963E3,0E0,2.6530137E3,8.458744E0,1.0644971E2,1.1532539E3,1.740459E3,3.4461318E3,1.0414387E4,1.8916047E3,5.950211E3,0E0,1.0248305E4,0E0,9.298169E4,0E0,7.8477277E2,1.1803125E4,0E0,2.1365586E4,3.976379E3,1.0721258E4,5.1740938E3,1.1090903E3,2.211329E3,3.8968398E3,4.5105322E2,0E0,0E0,0E0,0E0,0E0,0E0,0E0,0E0,0E0,0E0,0E0,0E0,0E0,0E0,0E0,0E0,0E0,0E0,0E0,0E0,0E0,0E0,0E0,0E0,0E0,0E0,0E0,0E0,0E0,0E0,0E0,0E0,0E0,0E0,0E0,0E0,0E0,0E0,0E0,0E0,0E0,0E0,0E0,0E0,0E0,0E0],"parents":[2147483647,0,0,1,1,2,2,3,3,4,4,5,5,6,6,7,7,9,9,10,10,11,11,12,12,13,13,14,14,15,15,16,16,17,17,18,18,19,19,20,20,21,21,22,22,23,23,24,24,25,25,26,26,27,27,28,28,29,29,30,30,32,32,33,33,34,34,35,35,36,36,37,37,38,38,39,39,40,40,42,42,44,44,46,46,47,47,49,49,50,50,51,51,52,52,53,53,54,54,55,55,56,56],"right_children":[2,4,6,8,10,12,14,16,-1,18,20,22,24,26,28,30,32,34,36,38,40,42,44,46,48,50,52,54,56,58,60,-1,62,64,66,68,70,72,74,76,78,-1,80,-1,82,-1,84,86,-1,88,90,92,94,96,98,100,102,-1,-1,-1,-1,-1,-1,-1,-1,-1,-1,-1,-1,-1,-1,-1,-1,-1,-1,-1,-1,-1,-1,-1,-1,-1,-1,-1,-1,-1,-1,-1,-1,-1,-1,-1,-1,-1,-1,-1,-1,-1,-1,-1,-1,-1,-1],"split_conditions":[9.5E1,8.75E1,1.1E2,2.35075E4,2.75E1,6.05E1,3.86E2,1.89203E3,1.5945792E2,1.05E1,5.4595E3,1.2625E3,6.1206396E3,1.5605E1,1.04E5,2.5E0,1.9E1,1.432925E3,9.8E2,3.4185E4,3.44825E2,5.6E1,2.1E1,9.05E1,8.77442E4,6.55E1,2.1E2,2.55E2,1.26365E4,1.55E1,2.75E1,3.574096E1,6.4E1,3.8235E3,3.1217E4,2.25E1,2.25E1,4.3E2,1.0255E3,2.51435E4,2.752E4,-1.6941237E0,2.5E0,5.5666607E1,6.175E3,1.0260073E1,5.7656396E3,1.28E2,3.7877064E1,2.43906E3,2.20575E3,1.681264E4,6.5525E1,1.9E2,2.85E2,2.5827502E2,6.7696497E2,2.7812138E1,-7.753456E-1,4.3652854E0,9.9750435E-1,1.536409E1,7.034262E0,2.0025094E-1,-5.569902E-1,2.0957034E0,3.1817276E0,4.642196E0,7.642036E0,4.58816E0,2.2327714E0,2.2916853E0,9.276587E-1,1.1573001E1,3.7084296E0,6.74342E-1,-1.9067384E-1,3.4466376E0,1.1962744E0,2.2756279E1,9.250815E0,6.159726E0,5.0076103E1,4.805502E-1,-5.6218166E0,1.8723833E1,1.1583331E1,6.1697097E0,2.1901814E1,1.383732E-2,3.6514308E0,1.6945772E1,3.626358E1,6.4034104E0,1.1993631E1,1.9558558E0,2.5966036E-1,1.120252E1,4.239559E0,3.8460422E0,8.248946E0,1.9058163E0,3.7037764E0],"split_indices":[0,1,0,2,0,1,3,2,0,0,1,2,2,5,2,1,1,4,1,2,5,2,1,1,4,1,1,0,1,0,0,0,1,1,2,0,0,1,1,1,1,0,1,0,2,0,2,1,0,2,2,2,5,0,0,5,5,0,0,0,0,0,0,0,0,0,0,0,0,0,0,0,0,0,0,0,0,0,0,0,0,0,0,0,0,0,0,0,0,0,0,0,0,0,0,0,0,0,0,0,0,0,0],"split_type":[0,0,0,0,0,0,0,0,0,0,0,0,0,0,0,0,0,0,0,0,0,0,0,0,0,0,0,0,0,0,0,0,0,0,0,0,0,0,0,0,0,0,0,0,0,0,0,0,0,0,0,0,0,0,0,0,0,0,0,0,0,0,0,0,0,0,0,0,0,0,0,0,0,0,0,0,0,0,0,0,0,0,0,0,0,0,0,0,0,0,0,0,0,0,0,0,0,0,0,0,0,0,0],"sum_hessian":[4.793E3,3.527E3,1.266E3,1.69E2,3.358E3,5.64E2,7.02E2,1.67E2,2E0,3.47E2,3.011E3,6.1E1,5.03E2,2.57E2,4.45E2,1.45E2,2.2E1,6.7E1,2.8E2,1.082E3,1.929E3,3.2E1,2.9E1,4.1E1,4.62E2,1.68E2,8.9E1,3.02E2,1.43E2,2E0,1.43E2,3E0,1.9E1,4E0,6.3E1,1.11E2,1.69E2,8.95E2,1.87E2,1.067E3,8.62E2,6E0,2.6E1,1.2E1,1.7E1,4E0,3.7E1,4.61E2,1E0,5.1E1,1.17E2,2E1,6.9E1,2.43E2,5.9E1,8.4E1,5.9E1,1E0,1E0,7E1,7.3E1,8E0,1.1E1,3E0,1E0,2.2E1,4.1E1,9.5E1,1.6E1,1.29E2,4E1,2.22E2,6.73E2,1.6E1,1.71E2,7.39E2,3.28E2,1.23E2,7.39E2,8E0,1.8E1,9E0,8E0,3.6E1,1E0,2.4E1,4.37E2,4.2E1,9E0,4.2E1,7.5E1,1.6E1,4E0,3.3E1,3.6E1,4.1E1,2.02E2,4E0,5.5E1,3.2E1,5.2E1,3.5E1,2.4E1],"tree_param":{"num_deleted":"0","num_feature":"6","num_nodes":"103","size_leaf_vector":"0"}},{"base_weights":[8.2999525E0,4.348076E0,1.9297523E1,1.9064585E1,3.6019742E0,3.0445713E1,1.031029E1,1.1698309E1,4.252211E2,9.758345E0,2.8894846E0,6.0071247E1,2.606619E1,1.8980783E1,6.5279574E0,7.8021073E0,4.58468E1,6.3010163E0,1.0560266E1,4.7742424E0,2.2702036E0,4.15891E1,1.17420006E2,4.0571675E0,3.0246084E1,1.2059485E1,4.2521503E1,2.2552645E0,1.2681319E1,5.1069496E1,6.8847456E0,1.0744523E2,3.0470663E1,-2.1740359E-1,6.7118144E0,1.3889359E1,9.950088E0,2.3672528E0,1.320624E1,-6.869505E-2,3.2112985E0,7.602931E0,5.1687176E1,1.25876274E2,5.846804E1,1.3011619E1,-1.8700022E1,9.10154E1,2.8980396E1,2.9203049E1,8.9563265E0,1.13668434E2,3.6957108E1,9.395069E-1,1.0488155E1,3.0058645E1,9.576662E0,7.8801056E1,-2.1968124E0,-1.0963018E0,9.698774E0,1.0363641E1,3.463378E1,8.637702E-1,-1.2261095E0,4.0473938E-1,6.9087405E0,1.0441469E1,3.6625877E1,1.0911832E1,5.85574E0,-1.3217753E-1,4.3425193E0,3.5249504E1,1.0602604E1,6.444758E-1,-1.819185E0,1.0414436E1,2.5960104E0,-4.370078E0,2.0200237E1,9.770436E1,3.072232E1,3.622071E0,2.165446E1,-1.4709579E0,-3.736164E1,6.273798E1,1.444787E2,2.8524239E1,1.07318344E2,1.9378742E1,7.593597E1,-1.9537544E0,1.2409072E1,2.7199217E1,5.731805E1,1.3676758E1,6.7891914E-1,1.1312919E1,3.929012E0,1.2080216E1,3.5005116E1,1.4085547E1,5.7738223E0],"categories":[],"categories_nodes":[],"categories_segments":[],"categories_sizes":[],"default_left":[1,1,1,1,1,1,1,1,0,1,1,1,1,1,1,1,1,1,1,1,1,1,1,1,1,1,1,1,1,1,1,0,1,1,1,1,1,1,1,1,1,1,1,0,0,1,1,1,1,1,1,0,1,1,1,1,1,0,0,0,0,0,0,0,0,0,0,0,0,0,0,0,0,0,0,0,0,0,0,0,0,0,0,0,0,0,0,0,0,0,0,0,0,0,0,0,0,0,0,0,0,0,0,0,0],"id":3,"left_children":[1,3,5,7,9,11,13,15,-1,17,19,21,23,25,27,29,31,33,35,37,39,41,43,45,47,49,51,53,55,57,59,-1,61,63,65,67,69,71,73,75,77,79,81,-1,-1,83,85,87,89,91,93,-1,95,97,99,101,103,-1,-1,-1,-1,-1,-1,-1,-1,-1,-1,-1,-1,-1,-1,-1,-1,-1,-1,-1,-1,-1,-1,-1,-1,-1,-1,-1,-1,-1,-1,-1,-1,-1,-1,-1,-1,-1,-1,-1,-1,-1,-1,-1,-1,-1,-1,-1,-1],"loss_changes":[2.0826834E5,3.8668797E4,1.2662859E5,5.0364194E5,1.4705551E4,7.174044E4,2.2930758E4,2.1994604E4,0E0,8.9829297E2,3.504752E3,7.143142E4,4.5323E4,3.4191805E4,1.2880492E4,5.6815605E3,1.2827555E4,1.8354663E2,4.3260547E2,1.506876E4,4.994574E3,1.8825945E4,1.115E3,1.6545568E4,2.9282062E4,8.569516E3,1.4801852E4,3.1424004E3,1.0556215E4,4.604585E3,3.3794668E3,0E0,8.966865E2,6.512009E0,7.669336E1,2.8316855E3,8.8509375E2,2.8640579E3,9.096049E3,8.1512823E2,7.1439473E3,2.1998635E3,3.848228E4,0E0,0E0,4.6284043E3,7.340053E3,3.0301328E3,1.15185E4,1.0006418E4,5.3733457E3,0E0,7.5802695E3,8.271458E2,1.7194092E2,2.2450234E3,2.8678828E3,0E0,0E0,0E0,0E0,0E0,0E0,0E0,0E0,0E0,0E0,0E0,0E0,0E0,0E0,0E0,0E0,0E0,0E0,0E0,0E0,0E0,0E0,0E0,0E0,0E0,0E0,0E0,0E0,0E0,0E0,0E0,0E0,0E0,0E0,0E0,0E0,0E0,0E0,0E0,0E0,0E0,0E0,0E0,0E0,0E0,0E0,0E0,0E0],"parents":[2147483647,0,0,1,1,2,2,3,3,4,4,5,5,6,6,7,7,9,9,10,10,11,11,12,12,13,13,14,14,15,15,16,16,17,17,18,18,19,19,20,20,21,21,22,22,23,23,24,24,25,25,26,26,27,27,28,28,29,29,30,30,32,32,33,33,34,34,35,35,36,36,37,37,38,38,39,39,40,40,41,41,42,42,45,45,46,46,47,47,48,48,49,49,50,50,52,52,53,53,54,54,55,55,56,56],"right_children":[2,4,6,8,10,12,14,16,-1,18,20,22,24,26,28,30,32,34,36,38,40,42,44,46,48,50,52,54,56,58,60,-1,62,64,66,68,70,72,74,76,78,80,82,-1,-1,84,86,88,90,92,94,-1,96,98,100,102,104,-1,-1,-1,-1,-1,-1,-1,-1,-1,-1,-1,-1,-1,-1,-1,-1,-1,-1,-1,-1,-1,-1,-1,-1,-1,-1,-1,-1,-1,-1,-1,-1,-1,-1,-1,-1,-1,-1,-1,-1,-1,-1,-1,-1,-1,-1,-1,-1],"split_conditions":[9.5E1,8.75E1,1.1E2,2.35075E4,2.75E1,8.7E1,5.025E2,2.4695E3,1.2756634E2,1.05E1,2.4435E3,6.9265E3,2.482E1,1.5860001E1,1.04185E2,2.5E0,2.1E1,1.432925E3,2.8E2,1.5351859E4,9.634E1,2.59E2,6.75E1,1.221E3,1.75E2,2.9E1,7.7E1,2.7E2,2.017E3,1.55E1,2.5E-1,3.223357E1,2.25E1,1.00776E3,1.675E2,1.1315E4,2.25E1,5.165E0,6.325E2,1.001E4,8.3085E3,4.01E2,7.5E0,3.7762882E1,1.7540413E1,7.4925E3,5.6056396E3,3.265E4,8.77442E4,1.88071E3,2.1100001E0,3.4100533E1,2.3311629E4,4.4918E2,8.6E2,7.091E4,9.675E3,2.3640318E1,-6.590437E-1,-3.2889056E-1,2.9096324E0,3.1090925E0,1.0390135E1,2.5913107E-1,-3.6783287E-1,1.2142182E-1,2.0726223E0,3.1324408E0,1.0987763E1,3.2735498E0,1.7567221E0,-3.965326E-2,1.3027558E0,1.0574852E1,3.1807814E0,1.9334276E-1,-5.457555E-1,3.124331E0,7.7880317E-1,-1.3110235E0,6.0600715E0,2.931131E1,9.216697E0,1.0866214E0,6.4963384E0,-4.4128737E-1,-1.1208492E1,1.8821394E1,4.3343613E1,8.557272E0,3.2195503E1,5.813623E0,2.278079E1,-5.861263E-1,3.7227218E0,8.159765E0,1.7195415E1,4.1030273E0,2.0367575E-1,3.3938758E0,1.1787037E0,3.6240652E0,1.0501535E1,4.2256646E0,1.7321467E0],"split_indices":[0,1,0,2,0,1,1,2,0,0,1,2,5,5,5,1,1,4,1,2,5,2,1,1,1,1,1,0,1,0,5,0,0,4,1,2,0,5,1,1,1,3,1,0,0,2,2,2,4,2,5,0,2,4,0,2,1,0,0,0,0,0,0,0,0,0,0,0,0,0,0,0,0,0,0,0,0,0,0,0,0,0,0,0,0,0,0,0,0,0,0,0,0,0,0,0,0,0,0,0,0,0,0,0,0],"split_type":[0,0,0,0,0,0,0,0,0,0,0,0,0,0,0,0,0,0,0,0,0,0,0,0,0,0,0,0,0,0,0,0,0,0,0,0,0,0,0,0,0,0,0,0,0,0,0,0,0,0,0,0,0,0,0,0,0,0,0,0,0,0,0,0,0,0,0,0,0,0,0,0,0,0,0,0,0,0,0,0,0,0,0,0,0,0,0,0,0,0,0,0,0,0,0,0,0,0,0,0,0,0,0,0,0],"sum_hessian":[4.793E3,3.527E3,1.266E3,1.69E2,3.358E3,5.64E2,7.02E2,1.67E2,2E0,3.47E2,3.011E3,7.1E1,4.93E2,2.12E2,4.9E2,1.51E2,1.6E1,6.7E1,2.8E2,7.43E2,2.268E3,5.5E1,1.6E1,7.9E1,4.14E2,1.65E2,4.7E1,2.9E2,2E2,2E0,1.49E2,2E0,1.4E1,4E0,6.3E1,4E1,2.4E2,5.79E2,1.64E2,6.51E2,1.617E3,1.3E1,4.2E1,1.3E1,3E0,5.7E1,2.2E1,7E0,4.07E2,2.4E1,1.41E2,2E0,4.5E1,2.51E2,3.9E1,2.9E1,1.71E2,1E0,1E0,3.9E1,1.1E2,3E0,1.1E1,2E0,2E0,2E0,6.1E1,3.6E1,4E0,1.93E2,4.7E1,2.56E2,3.23E2,1.6E1,1.48E2,4.63E2,1.88E2,1.26E2,1.491E3,7E0,6E0,1.2E1,3E1,2.8E1,2.9E1,1.2E1,1E1,6E0,1E0,4.06E2,1E0,2.1E1,3E0,3.4E1,1.07E2,3.2E1,1.3E1,4E0,2.47E2,3.4E1,5E0,7E0,2.2E1,7.7E1,9.4E1],"tree_param":{"num_deleted":"0","num_feature":"6","num_nodes":"105","size_leaf_vector":"0"}},{"base_weights":[5.9259963E0,3.1113021E0,1.3758921E1,1.4751813E1,2.5430539E0,2.1661434E1,7.3881125E0,8.634362E0,3.4017688E2,6.9744005E0,2.0263224E0,4.3419044E1,1.8446434E1,1.6692734E1,5.2679224E0,5.7523704E0,3.869025E1,-7.208512E-1,7.1559834E0,3.1042662E0,1.3059771E0,1.4689378E1,6.3590485E1,2.6969824E0,2.1438025E1,1.0334751E1,4.0564495E1,1.0226425E1,2.527215E0,4.340907E1,4.944734E0,8.5956184E1,2.3649576E1,4.8170084E-1,-2.3444664E0,1.1086732E1,6.629901E0,2.6952803E0,2.9970303E1,-3.1805604E0,1.4300739E0,3.8972504E1,7.302527E0,9.884839E1,4.2431232E1,9.111702E0,-1.3596527E1,7.936782E1,2.0394146E1,-1.692558E0,1.3770808E1,3.0076435E1,8.069668E1,2.21752E1,9.091556E0,6.017367E-1,9.523621E0,6.6980896E1,-1.8672905E0,3.306081E0,1.4619221E1,-1.0820002E-1,8.037013E-1,7.005655E0,3.2365044E1,-1.003801E0,6.73468E0,2.3188457E0,7.500687E0,2.1955957E1,4.233967E1,-4.182297E0,-2.051601E0,7.666637E0,1.2207401E0,1.05057304E2,1.0448819E1,5.993983E-1,1.4514299E1,3.0770031E1,1.0695506E2,1.2191328E1,8.173517E1,1.4004635E0,1.4513739E1,-1.0636157E0,-2.7172102E1,5.1660164E1,1.22806885E2,1.9996971E1,9.12206E1,-3.2759132E0,7.0431957E0,3.9899654E1,9.0948515E0,2.3589523E1,6.545933E1,3.1933882E0,3.2238605E1,1.086219E1,4.122159E0,2.2011275E0,-1.6868679E-1,2.3558E1,8.067347E0],"categories":[],"categories_nodes":[],"categories_segments":[],"categories_sizes":[],"default_left":[1,1,1,1,1,1,1,1,0,1,1,1,1,1,1,1,1,1,1,1,1,1,1,1,1,1,1,1,1,1,1,0,0,1,0,1,1,1,1,1,1,1,1,1,1,1,1,1,1,1,1,1,0,1,1,1,1,0,0,0,0,0,0,0,0,0,0,0,0,0,0,0,0,0,0,0,0,0,0,0,0,0,0,0,0,0,0,0,0,0,0,0,0,0,0,0,0,0,0,0,0,0,0,0,0],"id":4,"left_children":[1,3,5,7,9,11,13,15,-1,17,19,21,23,25,27,29,31,33,35,37,39,41,43,45,47,49,51,53,55,57,59,-1,-1,61,-1,63,65,67,69,71,73,75,77,79,81,83,85,87,89,91,93,95,-1,97,99,101,103,-1,-1,-1,-1,-1,-1,-1,-1,-1,-1,-1,-1,-1,-1,-1,-1,-1,-1,-1,-1,-1,-1,-1,-1,-1,-1,-1,-1,-1,-1,-1,-1,-1,-1,-1,-1,-1,-1,-1,-1,-1,-1,-1,-1,-1,-1,-1,-1],"loss_changes":[1.0565191E5,2.329914E4,6.3627562E4,3.2354938E5,7.6911035E3,3.872122E4,1.3780543E4,1.3810014E4,0E0,4.9561914E2,2.3370684E3,4.079125E4,2.3217422E4,1.9311691E4,7.774704E3,4.3168755E3,7.9199316E3,1.8701668E1,6.3578516E2,1.3181525E4,1.01173584E3,5.276053E3,2.7139031E4,8.485351E3,2.347711E4,4.3212666E3,8.937469E3,2.5646953E3,4.992168E3,3.3268125E3,2.2820771E3,0E0,0E0,1.2266506E0,0E0,3.1599604E3,2.5071582E2,2.1352227E3,8.5477344E2,4.6834717E1,2.2896677E3,1.2097148E4,1.199836E3,4.987328E3,3.2282867E4,2.395745E3,3.884353E3,2.0809375E3,9.681219E3,3.5503613E2,9.533483E3,3.7349375E3,0E0,3.144418E3,1.6094346E3,3.6017612E2,1.4449824E3,0E0,0E0,0E0,0E0,0E0,0E0,0E0,0E0,0E0,0E0,0E0,0E0,0E0,0E0,0E0,0E0,0E0,0E0,0E0,0E0,0E0,0E0,0E0,0E0,0E0,0E0,0E0,0E0,0E0,0E0,0E0,0E0,0E0,0E0,0E0,0E0,0E0,0E0,0E0,0E0,0E0,0E0,0E0,0E0,0E0,0E0,0E0,0E0],"parents":[2147483647,0,0,1,1,2,2,3,3,4,4,5,5,6,6,7,7,9,9,10,10,11,11,12,12,13,13,14,14,15,15,16,16,17,17,18,18,19,19,20,20,21,21,22,22,23,23,24,24,25,25,26,26,27,27,28,28,29,29,30,30,33,33,35,35,36,36,37,37,38,38,39,39,40,40,41,41,42,42,43,43,44,44,45,45,46,46,47,47,48,48,49,49,50,50,51,51,53,53,54,54,55,55,56,56],"right_children":[2,4,6,8,10,12,14,16,-1,18,20,22,24,26,28,30,32,34,36,38,40,42,44,46,48,50,52,54,56,58,60,-1,-1,62,-1,64,66,68,70,72,74,76,78,80,82,84,86,88,90,92,94,96,-1,98,100,102,104,-1,-1,-1,-1,-1,-1,-1,-1,-1,-1,-1,-1,-1,-1,-1,-1,-1,-1,-1,-1,-1,-1,-1,-1,-1,-1,-1,-1,-1,-1,-1,-1,-1,-1,-1,-1,-1,-1,-1,-1,-1,-1,-1,-1,-1,-1,-1,-1],"split_conditions":[9.5E1,8.05E1,1.1E2,2.2775E4,2.75E1,8.7E1,1.9E2,2.4695E3,1.0205307E2,2.544E3,5.5E1,1.081E3,1.49965E4,6.534E3,1.74E2,2.5E0,2.1E1,1.3E1,2.345E2,3.5E1,1.385E0,6.43725E2,2.1E1,1.221E3,1.81E2,9.4500005E-1,3.18E2,1.103635E3,2.55E2,1.55E1,1.338075E3,2.5786856E1,7.094873E0,4.891E2,-7.0333993E-1,7.32896E3,8.73E0,1.641835E3,9.6225E1,6.082E2,2.71E2,1.5E0,4E0,1.2625E3,7.8015E3,5.99955E3,5.6056396E3,3.265E4,8.77442E4,6.7312E2,2.4E1,2.883914E4,2.4209005E1,1.86264E4,1.344475E4,1.711E3,2.85E2,2.0094269E1,-5.6018716E-1,9.918243E-1,4.3857665E0,-3.2460008E-2,2.411104E-1,2.1016965E0,9.709514E0,-3.011403E-1,2.020404E0,6.9565374E-1,2.2502062E0,6.5867877E0,1.2701901E1,-1.2546892E0,-6.154803E-1,2.2999911E0,3.6622202E-1,3.1517193E1,3.134646E0,1.798195E-1,4.35429E0,9.2310095E0,3.208652E1,3.6573985E0,2.4520552E1,4.2013904E-1,4.3541217E0,-3.190847E-1,-8.151631E0,1.549805E1,3.6842068E1,5.9990916E0,2.736618E1,-9.82774E-1,2.112959E0,1.1969896E1,2.7284555E0,7.076857E0,1.9637798E1,9.580165E-1,9.671582E0,3.2586572E0,1.2366477E0,6.603383E-1,-5.060604E-2,7.0674005E0,2.4202042E0],"split_indices":[0,1,0,2,0,1,1,2,0,2,0,2,2,2,0,1,1,0,1,0,5,4,1,1,1,5,0,4,0,0,2,0,0,2,0,2,5,5,5,2,1,1,3,2,2,2,2,2,4,2,1,2,0,2,4,1,0,0,0,0,0,0,0,0,0,0,0,0,0,0,0,0,0,0,0,0,0,0,0,0,0,0,0,0,0,0,0,0,0,0,0,0,0,0,0,0,0,0,0,0,0,0,0,0,0],"split_type":[0,0,0,0,0,0,0,0,0,0,0,0,0,0,0,0,0,0,0,0,0,0,0,0,0,0,0,0,0,0,0,0,0,0,0,0,0,0,0,0,0,0,0,0,0,0,0,0,0,0,0,0,0,0,0,0,0,0,0,0,0,0,0,0,0,0,0,0,0,0,0,0,0,0,0,0,0,0,0,0,0,0,0,0,0,0,0,0,0,0,0,0,0,0,0,0,0,0,0,0,0,0,0,0,0],"sum_hessian":[4.793E3,3.527E3,1.266E3,1.63E2,3.364E3,5.64E2,7.02E2,1.61E2,2E0,3.5E2,3.014E3,7.1E1,4.93E2,1.29E2,5.73E2,1.48E2,1.3E1,8E0,3.42E2,1.206E3,1.808E3,3E1,4.1E1,7.9E1,4.14E2,1.03E2,2.6E1,2.03E2,3.7E2,2E0,1.46E2,2E0,1.1E1,5E0,3E0,3.8E1,3.04E2,1.189E3,1.7E1,4.8E1,1.76E3,6E0,2.4E1,1.4E1,2.7E1,5.7E1,2.2E1,6E0,4.08E2,2.3E1,8E1,2.2E1,4E0,1.6E1,1.87E2,2.91E2,7.9E1,1E0,1E0,1.26E2,2E1,2E0,3E0,3.3E1,5E0,4E0,3E2,1.104E3,8.5E1,1.2E1,5E0,2.4E1,2.4E1,5.6E1,1.704E3,1E0,5E0,1.3E1,1.1E1,2E0,1.2E1,1.6E1,1.1E1,2.4E1,3.3E1,1.2E1,1E1,5E0,1E0,4.07E2,1E0,2E1,3E0,1.1E1,6.9E1,2E1,2E0,6E0,1E1,1.37E2,5E1,9.4E1,1.97E2,6E0,7.3E1],"tree_param":{"num_deleted":"0","num_feature":"6","num_nodes":"105","size_leaf_vector":"0"}},{"base_weights":[4.248026E0,2.2334423E0,9.854342E0,1.5460824E1,1.8945166E0,1.5500508E1,5.3025103E0,9.830905E0,1.7169823E2,4.257211E0,1.34065E0,3.3229515E1,1.3209359E1,1.2198392E1,3.731487E0,5.885854E0,3.922471E1,5.1573715E1,2.0597363E2,3.5260947E0,1.2199934E2,-5.43958E-1,1.8186108E0,1.1546628E1,5.202187E1,3.6096237E0,1.5213136E1,5.9315467E0,2.6668941E1,-4.045168E-2,6.0074067E0,-4.3896365E0,9.817549E0,4.6553654E1,2.2585035E1,-1.2294983E-1,7.1308784E0,2.7840017E1,2.0223865E2,-2.0945113E0,7.914488E-2,3.8475294E0,6.879551E-1,2.6209332E1,2.1716745E0,8.477276E1,3.868418E1,1.0262364E1,-6.284956E0,6.3034637E1,1.4357479E1,1.3517447E1,3.207008E0,6.3471397E1,1.805421E1,-1.1896627E0,1.3671583E0,2.3079473E1,4.982484E0,-1.0656542E1,-1.9195739E0,4.2197483E1,5.815644E0,-2.5844014E0,1.3376315E0,1.4006378E1,5.897795E0,-2.9202793E0,-1.7715844E0,1.7466162E0,-1.3658494E0,2.3422492E0,7.283823E0,-5.557741E-1,2.696673E0,5.4688416E0,6.63231E1,-5.9687643E0,7.014123E0,7.002713E0,6.533953E1,8.263558E-1,1.2437567E1,-3.4160042E-1,-1.9761528E1,3.8745125E1,1.0438586E2,1.4012583E1,7.7537506E1,5.991376E0,3.50971E1,-1.763175E0,6.444106E0,1.3937471E1,6.940414E1,1.3444307E1,4.8114925E1,-3.8701193E0,-6.7869866E-1,5.3823867E0,2.0219481E-1,3.4968414E1,1.9815792E1,7.5244555E0,1.7678145E0],"categories":[],"categories_nodes":[],"categories_segments":[],"categories_sizes":[],"default_left":[1,1,1,1,1,1,1,1,1,1,1,1,1,1,1,1,1,0,0,1,1,1,1,1,1,1,1,1,1,1,1,1,1,0,0,1,1,0,0,1,1,1,1,1,1,0,1,1,1,1,1,1,1,1,1,1,1,1,1,0,0,0,0,0,0,0,0,0,0,0,0,0,0,0,0,0,0,0,0,0,0,0,0,0,0,0,0,0,0,0,0,0,0,0,0,0,0,0,0,0,0,0,0,0,0],"id":5,"left_children":[1,3,5,7,9,11,13,15,17,19,21,23,25,27,29,31,33,-1,-1,35,37,39,41,43,45,47,49,51,53,55,57,59,61,-1,-1,63,65,-1,-1,67,69,71,73,75,77,-1,79,81,83,85,87,89,91,93,95,97,99,101,103,-1,-1,-1,-1,-1,-1,-1,-1,-1,-1,-1,-1,-1,-1,-1,-1,-1,-1,-1,-1,-1,-1,-1,-1,-1,-1,-1,-1,-1,-1,-1,-1,-1,-1,-1,-1,-1,-1,-1,-1,-1,-1,-1,-1,-1,-1],"loss_changes":[5.4123312E4,1.5787084E4,3.2480227E4,7.57172E4,4.497246E3,2.251125E4,7.570494E3,9.741695E3,1.7291172E3,5.5782152E4,2.513234E3,2.5477562E4,9.601422E3,1.1630824E4,4.927821E3,3.153903E3,1.6809668E2,0E0,0E0,8.550988E3,2.459079E4,5.460429E2,5.1015225E3,4.2044087E3,1.1572555E4,5.8571924E3,1.6076281E4,1.858113E3,1.1218764E4,3.5265457E2,6.149128E3,3.2009622E2,7.011153E3,0E0,0E0,1.1682855E3,2.6897207E3,0E0,0E0,3.802588E1,9.758182E2,4.1003174E3,3.5740693E3,9.621039E3,8.302588E2,0E0,2.1498941E4,1.0775596E3,2.8767078E3,2.9863633E3,7.825836E3,3.68756E3,1.121501E3,1.0897852E3,3.926168E3,1.6172739E2,4.5731598E2,8.310742E1,2.75687E3,0E0,0E0,0E0,0E0,0E0,0E0,0E0,0E0,0E0,0E0,0E0,0E0,0E0,0E0,0E0,0E0,0E0,0E0,0E0,0E0,0E0,0E0,0E0,0E0,0E0,0E0,0E0,0E0,0E0,0E0,0E0,0E0,0E0,0E0,0E0,0E0,0E0,0E0,0E0,0E0,0E0,0E0,0E0,0E0,0E0,0E0],"parents":[2147483647,0,0,1,1,2,2,3,3,4,4,5,5,6,6,7,7,8,8,9,9,10,10,11,11,12,12,13,13,14,14,15,15,16,16,19,19,20,20,21,21,22,22,23,23,24,24,25,25,26,26,27,27,28,28,29,29,30,30,31,31,32,32,35,35,36,36,39,39,40,40,41,41,42,42,43,43,44,44,46,46,47,47,48,48,49,49,50,50,51,51,52,52,53,53,54,54,55,55,56,56,57,57,58,58],"right_children":[2,4,6,8,10,12,14,16,18,20,22,24,26,28,30,32,34,-1,-1,36,38,40,42,44,46,48,50,52,54,56,58,60,62,-1,-1,64,66,-1,-1,68,70,72,74,76,78,-1,80,82,84,86,88,90,92,94,96,98,100,102,104,-1,-1,-1,-1,-1,-1,-1,-1,-1,-1,-1,-1,-1,-1,-1,-1,-1,-1,-1,-1,-1,-1,-1,-1,-1,-1,-1,-1,-1,-1,-1,-1,-1,-1,-1,-1,-1,-1,-1,-1,-1,-1,-1,-1,-1,-1],"split_conditions":[9.5E1,3.35E1,1.1E2,3.34002E3,1.0005E3,6.8E1,1.9E2,1.193825E3,3.4E1,8.53262E4,4.2415E1,1.081E3,1.49965E4,7.9700003E0,1.61808E4,8.4E1,2.5E1,1.54721155E1,6.179209E1,3.644375E3,4.5E1,9.042436E3,1.50105E4,2.5E0,1.25E1,2.065E2,1.81E2,2.9E1,5.8E1,6.5274E3,5.005E2,2.75E1,4.5E0,1.3966097E1,6.775511E0,1.01121E3,2.345E2,8.352006E0,6.0671597E1,4.5E1,3.197E3,9.8961E4,3.927488E5,1.835E2,3.885E2,2.543183E1,6.14E3,2.0577E3,5.7656396E3,3.265E4,8.77442E4,1.9E0,2.33E0,1.95E2,1.722905E4,2.2E2,4.275E2,6.97845E2,8.28E3,-3.1969626E0,-5.758722E-1,1.26592455E1,1.7446932E0,-7.753205E-1,4.0128946E-1,4.201914E0,1.7693386E0,-8.760838E-1,-5.3147537E-1,5.239849E-1,-4.0975484E-1,7.0267475E-1,2.185147E0,-1.6673224E-1,8.090019E-1,1.6406525E0,1.989693E1,-1.7906294E0,2.104237E0,2.100814E0,1.960186E1,2.4790676E-1,3.73127E0,-1.0248013E-1,-5.9284587E0,1.1623538E1,3.1315758E1,4.203775E0,2.3261253E1,1.7974129E0,1.052913E1,-5.2895254E-1,1.933232E0,4.1812415E0,2.0821241E1,4.0332923E0,1.4434478E1,-1.1610359E0,-2.036096E-1,1.614716E0,6.0658444E-2,1.0490524E1,5.944738E0,2.2573369E0,5.3034437E-1],"split_indices":[0,1,0,2,1,1,1,2,0,2,5,2,2,5,2,2,1,0,0,2,0,2,1,1,1,1,1,1,1,2,1,0,1,0,0,2,1,0,0,0,1,2,2,2,2,0,2,2,2,2,4,5,5,0,2,0,1,4,1,0,0,0,0,0,0,0,0,0,0,0,0,0,0,0,0,0,0,0,0,0,0,0,0,0,0,0,0,0,0,0,0,0,0,0,0,0,0,0,0,0,0,0,0,0,0],"split_type":[0,0,0,0,0,0,0,0,0,0,0,0,0,0,0,0,0,0,0,0,0,0,0,0,0,0,0,0,0,0,0,0,0,0,0,0,0,0,0,0,0,0,0,0,0,0,0,0,0,0,0,0,0,0,0,0,0,0,0,0,0,0,0,0,0,0,0,0,0,0,0,0,0,0,0,0,0,0,0,0,0,0,0,0,0,0,0,0,0,0,0,0,0,0,0,0,0,0,0,0,0,0,0,0,0],"sum_hessian":[4.793E3,3.527E3,1.266E3,8.7E1,3.44E3,5.64E2,7.02E2,8.5E1,2E0,6.52E2,2.788E3,6.3E1,5.01E2,1.29E2,5.73E2,7.6E1,9E0,1E0,1E0,6.49E2,3E0,5.64E2,2.224E3,3E1,3.3E1,8.7E1,4.14E2,9.1E1,3.8E1,2.16E2,3.57E2,2.1E1,5.5E1,5E0,4E0,3.23E2,3.26E2,2E0,1E0,1.61E2,4.03E2,7.95E2,1.429E3,1.1E1,1.9E1,8E0,2.5E1,5.2E1,3.5E1,6E0,4.08E2,2.3E1,6.8E1,6E0,3.2E1,1.19E2,9.7E1,1.9E1,3.38E2,5E0,1.6E1,5E0,5E1,1.2E2,2.03E2,4.8E1,2.78E2,4.3E1,1.18E2,1.87E2,2.16E2,5.54E2,2.41E2,8.83E2,5.46E2,8E0,3E0,7E0,1.2E1,1.2E1,1.3E1,1E1,4.2E1,2.5E1,1E1,5E0,1E0,4.07E2,1E0,1.8E1,5E0,2.7E1,4.1E1,1E0,5E0,2.9E1,3E0,1.8E1,1.01E2,2.1E1,7.6E1,2E0,1.7E1,1.88E2,1.5E2],"tree_param":{"num_deleted":"0","num_feature":"6","num_nodes":"105","size_leaf_vector":"0"}},{"base_weights":[3.0569656E0,1.1056378E1,2.2012904E0,9.2341E0,2.1785422E2,1.1687996E0,5.45603E0,4.2287316E0,1.9348738E1,1.5233228E0,-3.8814098E-1,2.8839247E0,1.1670225E1,1.7285315E1,1.519675E0,6.117701E1,1.4322453E1,1.1341801E0,6.3171067E0,-2.2777236E0,1.515105E0,5.0765605E0,-1.5041457E0,1.18872314E2,1.0211686E1,2.0597324E0,3.4255577E1,-1.6203862E0,4.239151E0,1.1095459E1,4.188136E1,1.8950561E0,1.4285988E-1,3.4923977E1,5.5589776E0,-1.5820715E0,-3.8372111E0,3.6028044E0,8.545163E-1,-3.6663234E-1,8.432911E0,-1.5550373E1,-9.689148E-1,3.3168877E1,1.3638383E2,1.1785594E1,2.2345052E0,-3.8786077E0,7.1270466E0,6.1361977E1,2.6170452E1,-6.694737E0,-1.0468762E0,1.4782384E1,2.6357017E0,2.9022726E1,8.549964E0,4.3493553E1,1.0461418E1,-1.2557258E-1,3.36589E0,-1.1653011E0,1.6801884E0,4.4989333E0,1.909392E1,-2.5589147E0,-2.5887838E-1,-2.5273795E0,-3.9803529E0,3.0858195E0,8.036403E0,-4.5632133E-1,2.7299442E0,5.179384E-1,-2.9758492E0,1.6217543E1,6.3393188E0,-3.1646667E1,-2.227781E0,4.456537E0,-1.6520993E0,1.092333E1,1.43063965E1,-1.436557E1,2.8538182E0],"categories":[],"categories_nodes":[],"categories_segments":[],"categories_sizes":[],"default_left":[1,1,1,1,0,1,1,1,1,1,1,1,1,1,1,0,1,1,1,1,1,1,1,1,1,1,1,1,1,1,1,1,1,0,1,1,1,1,1,1,1,1,1,0,0,1,1,0,0,0,0,0,0,0,0,0,0,0,0,0,0,0,0,0,0,0,0,0,0,0,0,0,0,0,0,0,0,0,0,0,0,0,0,0,0],"id":6,"left_children":[1,3,5,7,-1,9,11,13,15,17,19,21,23,25,27,-1,29,31,33,35,37,39,41,43,45,47,49,51,53,55,57,59,61,-1,63,65,67,69,71,73,75,77,79,-1,-1,81,83,-1,-1,-1,-1,-1,-1,-1,-1,-1,-1,-1,-1,-1,-1,-1,-1,-1,-1,-1,-1,-1,-1,-1,-1,-1,-1,-1,-1,-1,-1,-1,-1,-1,-1,-1,-1,-1,-1],"loss_changes":[3.2790105E4,1.7246666E5,1.4551256E4,2.3206824E4,0E0,1.8165776E3,1.6637197E4,1.0903377E4,3.1080406E4,4.9922847E3,2.200815E3,7.11788E3,4.6475418E4,1.3623694E4,2.2014746E3,0E0,1.1719047E4,1.8703235E3,4.1650864E3,3.2698157E2,4.175501E2,9.009839E3,1.841873E3,1.4794922E3,3.7653809E3,9.0029474E2,3.8730957E3,3.422143E2,2.2940022E3,5.4104443E3,2.5416602E2,4.170151E3,2.1698948E3,0E0,2.7405825E3,2.7594373E2,7.564331E0,1.4252472E2,5.740486E2,4.3776028E2,4.868033E3,1.8594976E3,8.932362E2,0E0,0E0,3.9147266E2,5.6530945E2,0E0,0E0,0E0,0E0,0E0,0E0,0E0,0E0,0E0,0E0,0E0,0E0,0E0,0E0,0E0,0E0,0E0,0E0,0E0,0E0,0E0,0E0,0E0,0E0,0E0,0E0,0E0,0E0,0E0,0E0,0E0,0E0,0E0,0E0,0E0,0E0,0E0,0E0],"parents":[2147483647,0,0,1,1,2,2,3,3,5,5,6,6,7,7,8,8,9,9,10,10,11,11,12,12,13,13,14,14,16,16,17,17,18,18,19,19,20,20,21,21,22,22,23,23,24,24,25,25,26,26,27,27,28,28,29,29,30,30,31,31,32,32,34,34,35,35,36,36,37,37,38,38,39,39,40,40,41,41,42,42,45,45,46,46],"right_children":[2,4,6,8,-1,10,12,14,16,18,20,22,24,26,28,-1,30,32,34,36,38,40,42,44,46,48,50,52,54,56,58,60,62,-1,64,66,68,70,72,74,76,78,80,-1,-1,82,84,-1,-1,-1,-1,-1,-1,-1,-1,-1,-1,-1,-1,-1,-1,-1,-1,-1,-1,-1,-1,-1,-1,-1,-1,-1,-1,-1,-1,-1,-1,-1,-1,-1,-1,-1,-1,-1,-1],"split_conditions":[1.55E2,2.9875E4,9.5E1,2.425E3,6.535627E1,5.06955E4,2.2776703E5,8.5E0,2.9E1,4.88445E2,5.948515E5,2.5975E3,2.2E3,2.04725E2,7.1466003E2,1.8353104E1,1.234608E4,6.932E3,6.65E3,8.63105E4,8.083E4,2.3665E1,6.785E2,3.14E5,1.26365E4,4.908E1,2.5E0,5.082E1,2.15E1,4.55E1,2.525E2,1.142344E4,1.2560648E5,1.0477194E1,1.2290801E3,3.3458556E5,3.4972498E2,9.760786E5,1.2518142E6,1.232E3,4.75E2,1.1E2,2.891E3,9.950664E0,4.0915154E1,5.21838E5,1.3255E3,-1.1635823E0,2.138114E0,1.8408594E1,7.8511357E0,-2.0084212E0,-3.1406286E-1,4.4347153E0,7.907105E-1,8.706819E0,2.5649893E0,1.3048066E1,3.1384256E0,-3.7671775E-2,1.009767E0,-3.4959033E-1,5.040566E-1,1.3496801E0,5.728176E0,-7.6767445E-1,-7.766352E-2,-7.582139E-1,-1.1941059E0,9.257459E-1,2.4109209E0,-1.368964E-1,8.189833E-1,1.5538152E-1,-8.927548E-1,4.865263E0,1.9017957E0,-9.494E0,-6.6833436E-1,1.336961E0,-4.956298E-1,3.2769992E0,4.291919E0,-4.3096714E0,8.561455E-1],"split_indices":[1,2,0,2,0,1,2,1,1,5,2,1,1,2,2,0,2,1,1,1,1,5,3,2,1,2,1,2,1,1,3,2,2,0,5,2,5,2,2,1,1,0,1,0,0,2,3,0,0,0,0,0,0,0,0,0,0,0,0,0,0,0,0,0,0,0,0,0,0,0,0,0,0,0,0,0,0,0,0,0,0,0,0,0,0],"split_type":[0,0,0,0,0,0,0,0,0,0,0,0,0,0,0,0,0,0,0,0,0,0,0,0,0,0,0,0,0,0,0,0,0,0,0,0,0,0,0,0,0,0,0,0,0,0,0,0,0,0,0,0,0,0,0,0,0,0,0,0,0,0,0,0,0,0,0,0,0,0,0,0,0,0,0,0,0,0,0,0,0,0,0,0,0],"sum_hessian":[4.793E3,4.62E2,4.331E3,4.59E2,3E0,3.289E3,1.042E3,3.08E2,1.51E2,2.679E3,6.1E2,7.38E2,3.04E2,5.2E1,2.56E2,1.5E1,1.36E2,2.479E3,2E2,3.06E2,3.04E2,4.92E2,2.46E2,3E0,3.01E2,2.8E1,2.4E1,1.19E2,1.37E2,1.23E2,1.3E1,1.402E3,1.077E3,4E0,1.96E2,2.13E2,9.3E1,7.2E1,2.32E2,1.88E2,3.04E2,8E0,2.38E2,1E0,2E0,2.51E2,5E1,1.3E1,1.5E1,4E0,2E1,1.1E1,1.08E2,1.7E1,1.2E2,1.4E1,1.09E2,1.2E1,1E0,5.91E2,8.11E2,5.82E2,4.95E2,1.83E2,1.3E1,1.22E2,9.1E1,1.1E1,8.2E1,6.6E1,6E0,1.37E2,9.5E1,1.41E2,4.7E1,6.3E1,2.41E2,3E0,5E0,2.6E1,2.12E2,1.91E2,6E1,1E0,4.9E1],"tree_param":{"num_deleted":"0","num_feature":"6","num_nodes":"85","size_leaf_vector":"0"}},{"base_weights":[2.184285E0,8.437974E0,1.584998E0,6.875392E0,1.68837E2,8.5113764E-1,3.854432E0,3.5589316E0,1.8516417E1,2.2819781E0,5.149997E-1,3.648806E-1,6.3328257E0,1.3964312E1,1.3875977E0,4.272282E1,1.2459994E1,1.6666879E-1,6.0793924E0,-9.094506E-1,1.0710661E0,2.3256595E0,-1.3196417E0,3.4976067E1,5.6192718E0,7.631733E0,5.1005814E1,-6.861147E-1,3.871515E0,8.860143E0,3.0620869E1,-1.9332492E0,1.1440072E0,2.4592232E1,5.372135E0,9.027152E-1,-1.2208673E0,2.8410285E0,4.8445884E-2,-1.2284068E0,4.285624E0,-7.6756124E0,1.8648288E-1,9.758581E0,4.325892E1,5.0012193E0,2.052742E1,1.4509017E0,1.6521393E1,-6.751825E0,-3.8226905E-1,1.3211466E1,2.8362389E0,-3.8029942E-1,1.0785146E1,3.659587E1,1.4936689E1,-7.2761565E-1,-2.3401065E0,4.187888E0,-2.9540768E-1,4.655405E0,2.3604376E1,-7.5317407E-1,3.5388465E0,-1.0043833E1,-1.1499194E0,2.4025238E0,1.0935351E1,-1.6314437E0,8.076268E-1,-2.9857328E0,-3.7734345E-1,3.1959074E0,7.490949E0,-6.2926155E-1,-1.1412691E1,-1.0723857E-1,1.3641183E0,4.930562E1,1.0699178E1,1.2670431E0,6.418284E0,1.182113E2,1.1140673E1],"categories":[],"categories_nodes":[],"categories_segments":[],"categories_sizes":[],"default_left":[1,1,1,1,0,1,1,1,1,1,1,1,1,1,1,0,1,1,1,1,1,1,1,1,1,1,0,1,1,1,1,1,1,0,1,1,1,1,1,1,1,1,1,0,1,1,1,0,0,0,0,0,0,0,0,0,0,0,0,0,0,0,0,0,0,0,0,0,0,0,0,0,0,0,0,0,0,0,0,0,0,0,0,0,0],"id":7,"left_children":[1,3,5,7,-1,9,11,13,15,17,19,21,23,25,27,-1,29,31,33,35,37,39,41,43,45,47,-1,49,51,53,55,57,59,-1,61,63,65,67,69,71,73,75,77,-1,79,81,83,-1,-1,-1,-1,-1,-1,-1,-1,-1,-1,-1,-1,-1,-1,-1,-1,-1,-1,-1,-1,-1,-1,-1,-1,-1,-1,-1,-1,-1,-1,-1,-1,-1,-1,-1,-1,-1,-1],"loss_changes":[1.7953361E4,1.0385595E5,7.2847188E3,1.5994613E4,0E0,1.5898396E3,9.242916E3,7.3235283E3,1.2955258E4,5.0515586E3,2.1237725E3,1.4728933E3,1.257752E4,1.2746557E4,1.3934073E3,0E0,4.6319287E3,8.334055E2,2.8138887E3,4.2604926E2,3.489541E3,1.4402283E3,2.2989233E3,2.7109453E3,5.5271035E3,2.668358E3,0E0,2.7018884E2,1.1518688E3,1.1425254E3,5.7793555E2,6.1574463E1,1.214887E3,0E0,2.7388486E3,4.871961E2,3.9094946E2,2.4796035E3,1.5610586E3,1.0954744E2,4.406145E2,1.2041257E3,6.759616E1,0E0,1.6381387E3,3.1033096E3,2.068946E4,0E0,0E0,0E0,0E0,0E0,0E0,0E0,0E0,0E0,0E0,0E0,0E0,0E0,0E0,0E0,0E0,0E0,0E0,0E0,0E0,0E0,0E0,0E0,0E0,0E0,0E0,0E0,0E0,0E0,0E0,0E0,0E0,0E0,0E0,0E0,0E0,0E0,0E0],"parents":[2147483647,0,0,1,1,2,2,3,3,5,5,6,6,7,7,8,8,9,9,10,10,11,11,12,12,13,13,14,14,16,16,17,17,18,18,19,19,20,20,21,21,22,22,23,23,24,24,25,25,27,27,28,28,29,29,30,30,31,31,32,32,34,34,35,35,36,36,37,37,38,38,39,39,40,40,41,41,42,42,44,44,45,45,46,46],"right_children":[2,4,6,8,-1,10,12,14,16,18,20,22,24,26,28,-1,30,32,34,36,38,40,42,44,46,48,-1,50,52,54,56,58,60,-1,62,64,66,68,70,72,74,76,78,-1,80,82,84,-1,-1,-1,-1,-1,-1,-1,-1,-1,-1,-1,-1,-1,-1,-1,-1,-1,-1,-1,-1,-1,-1,-1,-1,-1,-1,-1,-1,-1,-1,-1,-1,-1,-1,-1,-1,-1,-1],"split_conditions":[1.31E2,2.9875E4,9.5E1,5.3050003E0,5.0651104E1,1.415E3,6.5005E1,9.5E0,3.45E1,9.302E3,5.04508E4,6.965E2,4.815E2,8.6288E2,9.5995996E2,1.2816847E1,1.1623E4,1.959125E3,2.815E2,1.885E3,2.0166E4,6.27876E3,1.9E2,4.113325E4,5.0940836E4,2.04725E2,1.5301744E1,2.645E1,2.15E1,4.08E3,9.9E1,2.155E2,3.335E2,7.37767E0,5.138E4,1.9396E4,1.3E1,4.86135E2,2.1659566E5,8.4E1,3.893E1,6.8486396E3,3.4239998E1,2.9275744E0,2.19E2,1.72905E2,1.1255E3,4.3527055E-1,4.956418E0,-2.0255475E0,-1.1468072E-1,3.96344E0,8.508717E-1,-1.1408983E-1,3.235544E0,1.0978762E1,4.481007E0,-2.1828471E-1,-7.0203197E-1,1.2563665E0,-8.862231E-2,1.3966216E0,7.081313E0,-2.2595222E-1,1.061654E0,-3.01315E0,-3.4497583E-1,7.207571E-1,3.2806056E0,-4.8943314E-1,2.4228804E-1,-8.957199E-1,-1.1320304E-1,9.5877224E-1,2.247285E0,-1.8877847E-1,-3.4238074E0,-3.2171573E-2,4.092355E-1,1.4791686E1,3.2097535E0,3.8011295E-1,1.9254853E0,3.5463394E1,3.342202E0],"split_indices":[1,2,0,5,0,1,5,1,1,2,2,1,1,2,2,0,2,2,1,1,1,2,0,2,4,2,0,2,1,2,1,1,1,0,2,2,0,5,2,3,5,2,5,0,0,5,1,0,0,0,0,0,0,0,0,0,0,0,0,0,0,0,0,0,0,0,0,0,0,0,0,0,0,0,0,0,0,0,0,0,0,0,0,0,0],"split_type":[0,0,0,0,0,0,0,0,0,0,0,0,0,0,0,0,0,0,0,0,0,0,0,0,0,0,0,0,0,0,0,0,0,0,0,0,0,0,0,0,0,0,0,0,0,0,0,0,0,0,0,0,0,0,0,0,0,0,0,0,0,0,0,0,0,0,0,0,0,0,0,0,0,0,0,0,0,0,0,0,0,0,0,0,0],"sum_hessian":[4.793E3,4.18E2,4.375E3,4.15E2,3E0,3.307E3,1.068E3,3.24E2,9.1E1,6.28E2,2.679E3,4.44E2,6.24E2,5.5E1,2.69E2,1.7E1,7.4E1,4.04E2,2.24E2,7.52E2,1.927E3,2.05E2,2.39E2,1.4E1,6.1E2,4.8E1,7E0,1.47E2,1.22E2,6.3E1,1.1E1,1.28E2,2.76E2,7E0,2.17E2,1.1E2,6.42E2,7.05E2,1.222E3,7.3E1,1.32E2,4.5E1,1.94E2,4E0,1E1,5.87E2,2.3E1,2.9E1,1.9E1,6E0,1.41E2,1.1E1,1.11E2,1.1E1,5.2E1,7E0,4E0,3.3E1,9.5E1,8.8E1,1.88E2,2.1E2,7E0,6.8E1,4.2E1,4E0,6.38E2,6.7E2,3.5E1,3.8E2,8.42E2,2.3E1,5E1,1E2,3.2E1,1.6E1,2.9E1,1.56E2,3.8E1,8E0,2E0,1.62E2,4.25E2,1E0,2.2E1],"tree_param":{"num_deleted":"0","num_feature":"6","num_nodes":"85","size_leaf_vector":"0"}},{"base_weights":[1.5673295E0,6.795603E0,1.1717496E0,5.45723E0,1.5398204E2,2.3531327E0,4.023889E-1,2.859075E0,1.8078775E1,2.1915102E0,9.617187E1,-7.3622084E-1,1.3678292E0,1.0144542E1,1.0249445E0,3.0618027E1,1.1984141E1,8.269334E-1,6.410546E0,-4.3524805E-1,-1.6455436E0,3.3672826E0,-5.560423E-2,5.7499886E0,4.0084988E1,-1.1493403E0,2.7251768E0,4.4841877E1,2.335108E1,3.757379E0,2.183033E1,1.9416474E0,-2.6741657E-1,3.0782309E1,5.5749326E0,-8.3269227E-1,1.0830199E0,-1.3092999E1,-1.5656072E0,1.950334E0,6.8341665E0,-6.0761106E-1,1.5502586E0,1.6920853E1,1.36777E0,-6.632837E0,-7.871029E-1,4.580103E0,-1.2321116E0,1.1542348E1,3.0764835E1,-8.143751E0,5.949736E0,2.9184162E1,1.5721401E1,7.795422E-2,4.1518154E0,-1.1022738E0,9.689126E-1,4.0831894E1,1.8141132E1,4.5953984E0,1.1663656E1,-1.4121021E0,-6.125196E-1,1.7190382E0,-6.1001253E0,-1.344967E0,-3.634332E0,6.631215E0,1.4172337E0,1.799336E1,6.2654815E0,-7.068477E-3,-2.3396208E0,8.94522E0,1.0016017E0],"categories":[],"categories_nodes":[],"categories_segments":[],"categories_sizes":[],"default_left":[1,1,1,1,0,1,1,1,1,1,0,1,1,1,1,1,1,1,1,1,1,1,1,1,0,1,1,0,1,1,1,1,1,1,1,1,1,0,1,1,1,1,1,0,0,0,0,0,0,0,0,0,0,0,0,0,0,0,0,0,0,0,0,0,0,0,0,0,0,0,0,0,0,0,0,0,0],"id":8,"left_children":[1,3,5,7,-1,9,11,13,15,17,-1,19,21,23,25,27,29,31,33,35,37,39,41,43,-1,45,47,-1,49,51,53,55,57,59,61,63,65,-1,67,69,71,73,75,-1,-1,-1,-1,-1,-1,-1,-1,-1,-1,-1,-1,-1,-1,-1,-1,-1,-1,-1,-1,-1,-1,-1,-1,-1,-1,-1,-1,-1,-1,-1,-1,-1,-1],"loss_changes":[9.906988E3,6.554542E4,4.0509727E3,1.0933877E4,0E0,2.6446195E4,2.9701074E3,3.7177388E3,3.989129E3,1.0104338E4,0E0,3.3864874E2,4.16117E3,7.137705E3,8.312129E2,8.134453E2,3.1580654E3,1.6205295E3,8.565137E3,5.63899E2,2.613423E2,2.9734077E3,7.5885443E2,2.4245146E3,0E0,1.914257E2,9.3054346E2,0E0,8.7056055E2,6.485583E2,3.498164E2,2.7100276E3,6.936463E2,1.0378027E3,2.4274707E3,9.353699E1,8.9679724E2,0E0,1.3524017E2,1.0711011E3,1.0041699E3,6.625562E2,8.795884E2,0E0,0E0,0E0,0E0,0E0,0E0,0E0,0E0,0E0,0E0,0E0,0E0,0E0,0E0,0E0,0E0,0E0,0E0,0E0,0E0,0E0,0E0,0E0,0E0,0E0,0E0,0E0,0E0,0E0,0E0,0E0,0E0,0E0,0E0],"parents":[2147483647,0,0,1,1,2,2,3,3,5,5,6,6,7,7,8,8,9,9,11,11,12,12,13,13,14,14,15,15,16,16,17,17,18,18,19,19,20,20,21,21,22,22,23,23,25,25,26,26,28,28,29,29,30,30,31,31,32,32,33,33,34,34,35,35,36,36,38,38,39,39,40,40,41,41,42,42],"right_children":[2,4,6,8,-1,10,12,14,16,18,-1,20,22,24,26,28,30,32,34,36,38,40,42,44,-1,46,48,-1,50,52,54,56,58,60,62,64,66,-1,68,70,72,74,76,-1,-1,-1,-1,-1,-1,-1,-1,-1,-1,-1,-1,-1,-1,-1,-1,-1,-1,-1,-1,-1,-1,-1,-1,-1,-1,-1,-1,-1,-1,-1,-1,-1,-1],"split_conditions":[9.9E1,2.9875E4,3.213E3,5.29E0,4.6194614E1,3.174E5,2.2270499E2,9.5E0,3.45E1,4.0025E4,2.885156E1,1.92945E4,3.0117E4,1.256E3,7.225E2,1.5E1,1.0615E1,6.865E2,4.665E2,8.816208E4,2.927626E4,3.9221775E5,7.8253594E5,2.5E0,1.20254965E1,2.645E1,5.9E1,1.3452563E1,2.2E1,3.675E3,6.15E1,6.02284E3,1.4008E4,3.82E2,2.4398E5,4.5E1,1.05E2,-3.9279E0,8E1,1.0125E3,4.5785E3,7.7308E4,6.3895E3,5.076256E0,4.10331E-1,-1.9898511E0,-2.3613088E-1,1.374031E0,-3.696335E-1,3.4627044E0,9.229451E0,-2.4431255E0,1.7849209E0,8.755249E0,4.7164207E0,2.3386266E-2,1.2455447E0,-3.3068216E-1,2.906738E-1,1.2249569E1,5.44234E0,1.3786196E0,3.499097E0,-4.2363065E-1,-1.8375589E-1,5.157115E-1,-1.8300377E0,-4.0349013E-1,-1.0902996E0,1.9893646E0,4.2517012E-1,5.3980083E0,1.8796445E0,-2.1205433E-3,-7.018863E-1,2.683566E0,3.004805E-1],"split_indices":[1,2,1,5,0,2,5,1,1,2,0,1,1,2,2,1,5,1,1,2,2,2,2,1,0,2,1,0,1,2,1,2,2,1,2,0,0,0,0,3,1,1,3,0,0,0,0,0,0,0,0,0,0,0,0,0,0,0,0,0,0,0,0,0,0,0,0,0,0,0,0,0,0,0,0,0,0],"split_type":[0,0,0,0,0,0,0,0,0,0,0,0,0,0,0,0,0,0,0,0,0,0,0,0,0,0,0,0,0,0,0,0,0,0,0,0,0,0,0,0,0,0,0,0,0,0,0,0,0,0,0,0,0,0,0,0,0,0,0,0,0,0,0,0,0,0,0,0,0,0,0,0,0,0,0,0,0],"sum_hessian":[4.793E3,3.36E2,4.457E3,3.34E2,2E0,1.757E3,2.7E3,2.78E2,5.6E1,1.755E3,2E0,1.239E3,1.461E3,5.5E1,2.23E2,1.7E1,3.9E1,1.327E3,4.28E2,9.32E2,3.07E2,6.07E2,8.54E2,4.9E1,6E0,9.8E1,1.25E2,4E0,1.3E1,2.2E1,1.7E1,6.57E2,6.7E2,1.3E1,4.15E2,7.39E2,1.93E2,1E0,3.06E2,4.32E2,1.75E2,6.36E2,2.18E2,1.3E1,3.6E1,5E0,9.3E1,8.5E1,4E1,6E0,7E0,3E0,1.9E1,6E0,1.1E1,3.57E2,3E2,4E2,2.7E2,6E0,7E0,3.59E2,5.6E1,2.02E2,5.37E2,1.78E2,1.5E1,2.78E2,2.8E1,4.3E1,3.89E2,7E0,1.68E2,4.73E2,1.63E2,1.4E1,2.04E2],"tree_param":{"num_deleted":"0","num_feature":"6","num_nodes":"77","size_leaf_vector":"0"}},{"base_weights":[1.1302392E0,4.5219398E0,7.726695E-1,3.6294506E0,1.0468898E2,1.3429966E0,1.8533323E-2,1.626137E0,8.252985E0,1.2318563E2,2.4599518E1,8.7073165E-1,6.145047E0,-3.6547184E-1,1.3483018E0,7.8820252E0,5.120824E-1,2.4478525E1,5.750379E0,1.6375495E-1,2.3545728E0,6.544308E1,4.750415E0,2.0026268E-2,-1.289992E0,6.3763247E0,6.4971787E-1,-1.5187438E-1,2.556673E1,-5.3569096E-1,2.253351E0,3.565002E1,1.7439487E1,3.8714309E0,2.0917767E1,7.4068004E-1,-6.749975E-1,1.0644248E1,1.3973945E0,1.0148279E1,3.8301783E0,-7.7066344E-1,1.0360796E0,-1.799844E1,-1.1690147E0,5.255913E0,1.8227182E1,4.2611784E-1,6.2891383E0,-7.437409E0,2.0124276E0,6.767541E1,1.3882672E1,1.7119622E0,-1.1310971E0,8.951896E0,6.12095E-1,1.0380615E1,3.8627777E1,6.695709E0,2.3317387E1,1.3370591E1,3.0806913E0,1.2109344E1,2.4909363E1,-2.4109265E-1,2.0064101E0,-9.1855353E-1,5.4693115E-1,2.71878E1,9.074168E0,2.857571E-1,2.3980074E0,6.4745054E0,2.1819145E1,7.4499216E0,2.7945344E0,-5.4480066E0,-7.119733E-1,-1.4113298E1,1.1013981E0,-1.4094771E0,-6.3944966E-2,5.7899923E0,-4.9516946E-1,1.2914708E0,-7.57252E-1,1.4172643E1,3.346759E-1],"categories":[],"categories_nodes":[],"categories_segments":[],"categories_sizes":[],"default_left":[1,1,1,1,1,1,1,1,1,0,0,1,1,1,1,1,1,1,1,1,1,0,1,1,1,1,1,1,1,1,1,1,1,1,1,1,1,1,1,1,1,1,1,0,1,1,0,1,1,0,0,0,0,0,0,0,0,0,0,0,0,0,0,0,0,0,0,0,0,0,0,0,0,0,0,0,0,0,0,0,0,0,0,0,0,0,0,0,0],"id":9,"left_children":[1,3,5,7,9,11,13,15,17,-1,-1,19,21,23,25,27,29,31,33,35,37,-1,39,41,43,45,47,49,51,53,55,57,59,61,63,65,67,69,71,73,75,77,79,-1,81,83,-1,85,87,-1,-1,-1,-1,-1,-1,-1,-1,-1,-1,-1,-1,-1,-1,-1,-1,-1,-1,-1,-1,-1,-1,-1,-1,-1,-1,-1,-1,-1,-1,-1,-1,-1,-1,-1,-1,-1,-1,-1,-1],"loss_changes":[5.8105215E3,4.047492E4,1.8657676E3,4.1917046E3,2.8952422E3,5.596215E3,9.548751E2,2.2122334E3,5.4222803E3,0E0,0E0,2.359957E3,1.7965588E4,5.171633E2,1.4675928E3,6.823586E3,4.9563434E2,7.9374023E2,3.3388667E3,7.384434E2,5.745716E3,0E0,1.0390366E3,8.242659E2,8.4207263E2,5.8136914E2,4.6261966E2,5.5108246E2,6.4404873E3,2.2944168E2,1.1159114E3,5.0496582E1,6.648342E2,7.7003674E2,1.5543945E2,1.1238477E3,1.856146E2,1.7013955E3,7.245465E2,1.1878914E3,6.801997E2,1.5451566E2,4.5984528E2,0E0,1.1284412E2,1.5030066E2,0E0,3.6553357E2,6.5244525E2,0E0,0E0,0E0,0E0,0E0,0E0,0E0,0E0,0E0,0E0,0E0,0E0,0E0,0E0,0E0,0E0,0E0,0E0,0E0,0E0,0E0,0E0,0E0,0E0,0E0,0E0,0E0,0E0,0E0,0E0,0E0,0E0,0E0,0E0,0E0,0E0,0E0,0E0,0E0,0E0],"parents":[2147483647,0,0,1,1,2,2,3,3,4,4,5,5,6,6,7,7,8,8,11,11,12,12,13,13,14,14,15,15,16,16,17,17,18,18,19,19,20,20,22,22,23,23,24,24,25,25,26,26,27,27,28,28,29,29,30,30,31,31,32,32,33,33,34,34,35,35,36,36,37,37,38,38,39,39,40,40,41,41,42,42,44,44,45,45,47,47,48,48],"right_children":[2,4,6,8,10,12,14,16,18,-1,-1,20,22,24,26,28,30,32,34,36,38,-1,40,42,44,46,48,50,52,54,56,58,60,62,64,66,68,70,72,74,76,78,80,-1,82,84,-1,86,88,-1,-1,-1,-1,-1,-1,-1,-1,-1,-1,-1,-1,-1,-1,-1,-1,-1,-1,-1,-1,-1,-1,-1,-1,-1,-1,-1,-1,-1,-1,-1,-1,-1,-1,-1,-1,-1,-1,-1,-1],"split_conditions":[1.505E2,2.9875E4,9.372E3,4.395E0,7.5E1,2.4398E5,8.3911E2,7.5E0,3.15E1,3.6955692E1,7.3798556E0,3.9894438E4,2.45E3,4.0783E4,4.004E4,5.65E-1,1.05815E3,1.5E1,1.234608E4,1.6805E3,1.095E3,1.9632923E1,1.0694865E4,1.5152166E5,5.988525E4,1.0730175E6,4.783725E3,2.1220001E1,2.5E0,2.25E1,1.05E1,8.4782E2,5.15E1,1.2E1,3.0075E1,8.333425E3,2.2E2,3.82E2,8.4798E4,6.3387E2,3.085E3,4.055E2,2.65E1,-5.3995323E0,4.8455E5,1.1514E4,5.468155E0,1.124645E5,1.791625E5,-2.2312229E0,6.037283E-1,2.0302624E1,4.164802E0,5.1358867E-1,-3.3932912E-1,2.6855688E0,1.836285E-1,3.1141846E0,1.1588333E1,2.0087128E0,6.9952164E0,4.0111775E0,9.2420745E-1,3.6328032E0,7.4728093E0,-7.23278E-2,6.0192305E-1,-2.7556607E-1,1.6407935E-1,8.156341E0,2.7222505E0,8.572713E-2,7.1940225E-1,1.9423517E0,6.545744E0,2.2349765E0,8.3836037E-1,-1.634402E0,-2.1359201E-1,-4.2339897E0,3.3041945E-1,-4.2284316E-1,-1.918349E-2,1.7369977E0,-1.4855084E-1,3.8744125E-1,-2.2717561E-1,4.251793E0,1.0040278E-1],"split_indices":[1,2,1,5,0,2,5,1,1,0,0,2,1,1,1,5,2,1,2,1,1,0,4,2,2,2,5,2,1,0,3,4,3,3,5,2,0,1,2,5,1,3,3,0,2,3,0,1,1,0,0,0,0,0,0,0,0,0,0,0,0,0,0,0,0,0,0,0,0,0,0,0,0,0,0,0,0,0,0,0,0,0,0,0,0,0,0,0,0],"split_type":[0,0,0,0,0,0,0,0,0,0,0,0,0,0,0,0,0,0,0,0,0,0,0,0,0,0,0,0,0,0,0,0,0,0,0,0,0,0,0,0,0,0,0,0,0,0,0,0,0,0,0,0,0,0,0,0,0,0,0,0,0,0,0,0,0,0,0,0,0,0,0,0,0,0,0,0,0,0,0,0,0,0,0,0,0,0,0,0,0],"sum_hessian":[4.793E3,4.56E2,4.337E3,4.53E2,3E0,2.469E3,1.868E3,3.17E2,1.36E2,2E0,1E0,2.249E3,2.2E2,1.45E3,4.18E2,4.7E1,2.7E2,1.7E1,1.19E2,1.524E3,7.25E2,4E0,2.16E2,1.024E3,4.26E2,5E1,3.68E2,3.3E1,1.4E1,1.69E2,1.01E2,5E0,1.2E1,1.07E2,1.2E1,9.03E2,6.21E2,7.4E1,6.51E2,3E1,1.86E2,5.76E2,4.48E2,2E0,4.24E2,4.7E1,3E0,3.55E2,1.3E1,7E0,2.6E1,2E0,1.2E1,3.5E1,1.34E2,1.9E1,8.2E1,1E0,4E0,5E0,7E0,7E0,1E2,5E0,7E0,5.09E2,3.94E2,5.18E2,1.03E2,5E0,6.9E1,3.09E2,3.42E2,2.4E1,6E0,4E1,1.46E2,6E0,5.7E2,1E0,4.47E2,3.48E2,7.6E1,4.3E1,4E0,2.05E2,1.5E2,5E0,8E0],"tree_param":{"num_deleted":"0","num_feature":"6","num_nodes":"89","size_leaf_vector":"0"}},{"base_weights":[8.2313204E-1,4.995987E0,6.451145E-1,3.9926798E0,6.8211205E1,1.3145925E0,1.8006437E-1,1.2460321E0,1.2321108E1,1.2142646E0,6.3848873E1,-2.8830355E-1,9.9905187E-1,1.2084363E1,5.3530544E-1,2.8122614E1,6.8632917E0,4.9071205E-1,3.7725403E0,7.623736E1,1.953595E1,-7.407117E-2,-1.7718669E0,3.749729E0,4.5901713E-1,-1.4966524E-1,5.4978294E1,2.6368942E0,-2.8215823E0,1.39832945E1,3.3444363E1,3.4361198E0,1.0289967E1,1.3609393E0,-1.3932414E-1,6.215575E1,3.3393147E0,1.518927E-1,-1.0680476E0,-4.8768697E0,-7.1020485E-3,6.938225E0,2.1793654E0,1.2030177E0,-3.0799094E-1,-4.3069754E0,3.2061157E0,2.6232185E1,2.0506885E0,-9.081913E0,5.3344287E-2,7.628837E0,-2.2865557E1,6.6489005E0,1.253793E1,1.3069367E-1,4.1675596E0,-6.3268006E-1,6.2168086E-1,1.540664E1,2.6859987E0,-3.910727E-1,1.1912546E0,-1.5945271E0,-6.690068E-1,-4.2109466E0,-1.631019E1,1.01470836E-1,-7.5493665E0,4.0527E0,1.1888495E1,-1.5846361E0,3.4228916E0,7.413249E-1,3.6681383E0,-1.5727662E0,4.3343952E-1],"categories":[],"categories_nodes":[],"categories_segments":[],"categories_sizes":[],"default_left":[1,1,1,1,0,1,1,1,1,1,1,1,1,1,1,1,1,1,1,0,0,1,1,1,1,1,0,1,1,0,0,1,1,1,1,0,1,1,1,1,1,1,1,1,1,0,0,0,0,0,0,0,0,0,0,0,0,0,0,0,0,0,0,0,0,0,0,0,0,0,0,0,0,0,0,0,0],"id":10,"left_children":[1,3,5,7,-1,9,11,13,15,17,19,21,23,25,27,29,31,33,35,-1,-1,37,39,41,43,45,-1,47,49,-1,-1,51,53,55,57,-1,59,61,63,65,67,69,71,73,75,-1,-1,-1,-1,-1,-1,-1,-1,-1,-1,-1,-1,-1,-1,-1,-1,-1,-1,-1,-1,-1,-1,-1,-1,-1,-1,-1,-1,-1,-1,-1,-1],"loss_changes":[3.557959E3,1.2158814E4,1.4316196E3,4.4224473E3,0E0,1.1748833E4,1.041728E3,1.1258856E3,3.9465889E3,3.4836704E3,1.5754102E2,5.4907434E2,1.4659146E3,4.731118E3,9.88057E2,4.352881E2,3.991632E2,8.0560504E2,1.028908E4,0E0,0E0,3.3953702E2,1.1945181E3,7.960288E2,4.723018E2,1.2541683E2,0E0,1.1357314E3,9.72376E2,0E0,0E0,2.3799475E3,6.3966187E1,2.1298528E3,3.2064902E2,0E0,3.2146172E3,6.957297E2,5.775757E1,5.328019E2,1.15409996E2,7.0887866E2,5.202939E2,4.7529474E2,3.832808E2,0E0,0E0,0E0,0E0,0E0,0E0,0E0,0E0,0E0,0E0,0E0,0E0,0E0,0E0,0E0,0E0,0E0,0E0,0E0,0E0,0E0,0E0,0E0,0E0,0E0,0E0,0E0,0E0,0E0,0E0,0E0,0E0],"parents":[2147483647,0,0,1,1,2,2,3,3,5,5,6,6,7,7,8,8,9,9,10,10,11,11,12,12,13,13,14,14,15,15,16,16,17,17,18,18,21,21,22,22,23,23,24,24,25,25,27,27,28,28,31,31,32,32,33,33,34,34,36,36,37,37,38,38,39,39,40,40,41,41,42,42,43,43,44,44],"right_children":[2,4,6,8,-1,10,12,14,16,18,20,22,24,26,28,30,32,34,36,-1,-1,38,40,42,44,46,-1,48,50,-1,-1,52,54,56,58,-1,60,62,64,66,68,70,72,74,76,-1,-1,-1,-1,-1,-1,-1,-1,-1,-1,-1,-1,-1,-1,-1,-1,-1,-1,-1,-1,-1,-1,-1,-1,-1,-1,-1,-1,-1,-1,-1,-1],"split_conditions":[4.15E1,1.5780001E1,3.179E3,1.320435E3,2.0463362E1,3.16332E5,2.6611094E5,1.5E0,1.65E1,4.095365E4,1.5E3,9.5E1,2.581E3,2.195E2,8E1,8.3313E2,4.495E0,4.345E2,1.51E2,2.2871208E1,5.860785E0,3.20485E4,1.9E2,1.079943E4,6.4255E4,8.45E1,1.6493488E1,2.5E0,4.5E0,4.1949887E0,1.0033309E1,3.93E0,2.9E1,7.3079697E3,1.4008E4,1.8646727E1,5.795E2,1.0752075E5,4.5E1,1.67145E4,6.5E2,6.3766504E2,1.422E3,1.011575E3,6.398671E5,-1.2920927E0,9.618347E-1,7.869656E0,6.152066E-1,-2.724574E0,1.6003286E-2,2.2886512E0,-6.8596673E0,1.9946703E0,3.761379E0,3.9208103E-2,1.250268E0,-1.8980403E-1,1.8650426E-1,4.621992E0,8.0579966E-1,-1.1732181E-1,3.573764E-1,-4.7835815E-1,-2.0070206E-1,-1.263284E0,-4.8930573E0,3.0441253E-2,-2.26481E0,1.2158101E0,3.5665488E0,-4.7539085E-1,1.0268675E0,2.2239748E-1,1.1004416E0,-4.7182986E-1,1.3003187E-1],"split_indices":[1,5,1,2,0,2,2,1,1,2,1,0,3,2,0,4,5,1,1,0,0,1,0,4,1,2,0,1,3,0,0,5,1,2,2,0,1,2,0,1,0,5,3,5,2,0,0,0,0,0,0,0,0,0,0,0,0,0,0,0,0,0,0,0,0,0,0,0,0,0,0,0,0,0,0,0,0],"split_type":[0,0,0,0,0,0,0,0,0,0,0,0,0,0,0,0,0,0,0,0,0,0,0,0,0,0,0,0,0,0,0,0,0,0,0,0,0,0,0,0,0,0,0,0,0,0,0,0,0,0,0,0,0,0,0,0,0,0,0,0,0,0,0,0,0,0,0,0,0,0,0,0,0,0,0,0,0],"sum_hessian":[4.793E3,1.95E2,4.598E3,1.93E2,2E0,1.884E3,2.714E3,1.46E2,4.7E1,1.882E3,2E0,1.727E3,9.87E2,8E0,1.38E2,1.1E1,3.6E1,1.468E3,4.14E2,1E0,1E0,1.51E3,2.17E2,1.61E2,8.26E2,7E0,1E0,8.5E1,5.3E1,4E0,7E0,1.9E1,1.7E1,6.16E2,8.52E2,2E0,4.12E2,1.231E3,2.79E2,7.8E1,1.39E2,5.2E1,1.09E2,4.19E2,4.07E2,3E0,4E0,1E0,8.4E1,1.6E1,3.7E1,1.7E1,2E0,8E0,9E0,4.29E2,1.87E2,5.17E2,3.35E2,2E1,3.92E2,8.09E2,4.22E2,1.19E2,1.6E2,7.5E1,3E0,1.38E2,1E0,3.4E1,1.8E1,2.7E1,8.2E1,3.54E2,6.5E1,1.5E2,2.57E2],"tree_param":{"num_deleted":"0","num_feature":"6","num_nodes":"77","size_leaf_vector":"0"}},{"base_weights":[5.990113E-1,2.735099E0,3.8305777E-1,2.1138117E0,6.992696E1,6.959501E-1,-9.853829E-2,1.5743771E0,1.1755184E1,8.55118E1,1.1586227E1,1.8311492E-1,2.3115768E0,-2.1674979E-1,2.5274081E0,5.2053022E0,6.9175225E-1,1.5419798E1,7.1109715E0,8.965847E-1,-1.764314E-1,3.4476173E1,2.0020695E0,-1.382862E-1,-2.8782303E0,1.7240881E1,1.6628828E0,2.3863766E0,2.1215261E1,-8.813011E-2,3.3506687E0,3.8725781E0,9.703935E0,6.849841E-1,1.3549585E1,1.23013474E-1,-1.3569217E0,1.5450705E1,6.480176E1,1.6314362E1,1.8385684E0,-8.0258334E-1,2.0280027E-1,-2.0045352E0,-4.0602794E0,3.2311647E0,4.3655053E-1,-2.1871173E0,5.3089685E0,6.5596414E0,2.3490421E1,5.3285424E-2,-1.8357376E1,2.3112938E0,1.1896444E1,5.87984E0,-7.6371765E-1,2.1769272E-1,2.9057727E0,5.5104203E0,1.9330486E1,-5.5287075E-1,5.923909E-1,-1.0264873E1,-7.55378E-1,9.781354E0,2.1764587E1,-4.9513197E-1,2.3826942E0,-7.8034425E-1,-6.416961E0,-1.1758608E1,2.252837E-1,-2.4541388E0,-5.175586E-1,-4.2615056E0,-2.1910334E-1,1.6251853E0,6.003383E0,9.503639E-1,-8.8436204E-1],"categories":[],"categories_nodes":[],"categories_segments":[],"categories_sizes":[],"default_left":[1,1,1,1,1,1,1,1,1,0,0,1,1,1,1,1,1,0,1,1,1,1,1,1,1,0,1,1,1,1,1,1,0,1,1,1,1,0,0,1,1,1,1,1,1,1,1,0,0,0,0,0,0,0,0,0,0,0,0,0,0,0,0,0,0,0,0,0,0,0,0,0,0,0,0,0,0,0,0,0,0],"id":11,"left_children":[1,3,5,7,9,11,13,15,17,-1,-1,19,21,23,25,27,29,-1,31,33,35,37,39,41,43,-1,45,47,49,51,53,55,-1,57,59,61,63,-1,-1,65,67,69,71,73,75,77,79,-1,-1,-1,-1,-1,-1,-1,-1,-1,-1,-1,-1,-1,-1,-1,-1,-1,-1,-1,-1,-1,-1,-1,-1,-1,-1,-1,-1,-1,-1,-1,-1,-1,-1],"loss_changes":[2.2104038E3,1.8220188E4,6.563136E2,2.2542817E3,2.646164E3,2.1869492E3,5.332235E2,1.3263684E3,2.8179297E2,0E0,0E0,5.1449164E2,6.2624707E3,3.4270853E2,9.126231E2,3.6049746E3,6.949654E2,0E0,6.318518E1,1.7899196E3,4.7172495E2,2.460517E3,1.4465913E3,3.6201544E2,4.04003E1,0E0,1.3513908E2,9.472633E2,2.4603809E2,6.727025E2,6.475561E2,6.963436E1,0E0,6.8636145E2,4.046908E2,3.381932E2,1.439047E3,0E0,0E0,3.635742E1,7.9482153E2,6.2665924E1,2.8664276E2,1.8117783E1,1.3752258E1,1.2825931E2,2.8667269E1,0E0,0E0,0E0,0E0,0E0,0E0,0E0,0E0,0E0,0E0,0E0,0E0,0E0,0E0,0E0,0E0,0E0,0E0,0E0,0E0,0E0,0E0,0E0,0E0,0E0,0E0,0E0,0E0,0E0,0E0,0E0,0E0,0E0,0E0],"parents":[2147483647,0,0,1,1,2,2,3,3,4,4,5,5,6,6,7,7,8,8,11,11,12,12,13,13,14,14,15,15,16,16,18,18,19,19,20,20,21,21,22,22,23,23,24,24,26,26,27,27,28,28,29,29,30,30,31,31,33,33,34,34,35,35,36,36,39,39,40,40,41,41,42,42,43,43,44,44,45,45,46,46],"right_children":[2,4,6,8,10,12,14,16,18,-1,-1,20,22,24,26,28,30,-1,32,34,36,38,40,42,44,-1,46,48,50,52,54,56,-1,58,60,62,64,-1,-1,66,68,70,72,74,76,78,80,-1,-1,-1,-1,-1,-1,-1,-1,-1,-1,-1,-1,-1,-1,-1,-1,-1,-1,-1,-1,-1,-1,-1,-1,-1,-1,-1,-1,-1,-1,-1,-1,-1,-1],"split_conditions":[1.46E2,2.9875E4,1.0978E4,1.04125E4,7.5E1,8.4744E4,2.1804302E3,1.25E1,9.9E1,2.5653542E1,3.4758685E0,8.215E2,1.02E3,1.66106E5,5.1E4,1.75E0,3.608E3,4.6259394E0,1.34401E4,5.62E4,9.5E1,2.3E5,2.65E2,1.5270153E5,2.176505E5,5.1722646E0,1.619935E5,1.5625E2,6.4420996E2,3.5545E3,2.25E2,1.15255E4,2.9111805E0,3.0275002E1,8.9335E1,1.9049E4,2.24E2,4.6352115E0,1.9440529E1,1.432E3,2.75E1,6.2E2,2.65E1,1.3380219E6,1.87475E6,1.8036081E6,2.79515E5,-6.561352E-1,1.5926906E0,1.9678925E0,7.047127E0,1.5985629E-2,-5.507213E0,6.9338816E-1,3.5689335E0,1.763952E0,-2.291153E-1,6.530782E-2,8.717318E-1,1.6531261E0,5.799146E0,-1.6586123E-1,1.7771727E-1,-3.0794618E0,-2.2661342E-1,2.9344063E0,6.5293765E0,-1.485396E-1,7.148083E-1,-2.3410328E-1,-1.9250884E0,-3.5275824E0,6.758511E-2,-7.3624164E-1,-1.5526758E-1,-1.2784517E0,-6.5731004E-2,4.875556E-1,1.801015E0,2.8510916E-1,-2.6530862E-1],"split_indices":[1,2,1,2,0,2,5,1,1,0,0,1,1,1,1,5,2,0,2,2,0,2,3,2,1,0,1,2,4,2,0,2,0,5,5,2,3,0,0,1,0,0,3,2,2,2,1,0,0,0,0,0,0,0,0,0,0,0,0,0,0,0,0,0,0,0,0,0,0,0,0,0,0,0,0,0,0,0,0,0,0],"split_type":[0,0,0,0,0,0,0,0,0,0,0,0,0,0,0,0,0,0,0,0,0,0,0,0,0,0,0,0,0,0,0,0,0,0,0,0,0,0,0,0,0,0,0,0,0,0,0,0,0,0,0,0,0,0,0,0,0,0,0,0,0,0,0,0,0,0,0,0,0,0,0,0,0,0,0,0,0,0,0,0,0],"sum_hessian":[4.793E3,4.39E2,4.354E3,4.36E2,3E0,2.639E3,1.715E3,4.14E2,2.2E1,2E0,1E0,2.004E3,6.35E2,1.642E3,7.3E1,8E1,3.34E2,1.1E1,1.1E1,6.71E2,1.333E3,5E0,6.3E2,1.596E3,4.6E1,3E0,7E1,6.9E1,1.1E1,2.59E2,7.5E1,6E0,5E0,6.61E2,1E1,1.064E3,2.69E2,4E0,1E0,6E0,6.24E2,5.41E2,1.055E3,2.8E1,1.8E1,3E1,4E1,2.7E1,4.2E1,2E0,9E0,2.58E2,1E0,6.8E1,7E0,4E0,2E0,5.47E2,1.14E2,5E0,5E0,4.36E2,6.28E2,1.6E1,2.53E2,4E0,2E0,1.18E2,5.06E2,5.4E2,1E0,1E0,1.054E3,2.1E1,7E0,1.7E1,1E0,2E1,1E1,2.9E1,1.1E1],"tree_param":{"num_deleted":"0","num_feature":"6","num_nodes":"81","size_leaf_vector":"0"}},{"base_weights":[4.3719512E-1,1.6860142E0,2.19317E-1,1.2509102E0,3.5533478E1,5.1067444E-4,7.9888934E-1,9.003001E-1,6.619584E0,6.8409424E1,1.6367579E1,4.4714156E-1,-2.0606737E-1,3.9351036E1,6.252933E-1,8.649476E0,7.317504E-1,1.2050222E1,2.227516E0,3.0219838E-1,1.160674E1,-5.260474E-3,-1.1427776E0,5.5081497E1,2.1648045E1,2.0724943E0,1.2586583E-1,-1.1483146E0,4.4957478E1,-8.0289084E-1,1.6048025E0,2.1291048E1,9.710651E0,-5.230602E0,4.8580055E0,3.7484642E-2,2.228129E0,1.5339994E1,3.05233E-1,-4.215538E-1,2.8437692E-1,-1.0339092E1,-7.104633E-1,9.798372E0,1.814921E0,2.6031625E-1,-3.7344756E0,-3.6490595E0,1.9606069E0,1.4536301E0,-1.4172977E0,1.5117005E1,1.1638488E0,5.173691E0,1.3168651E1,-7.9509835E0,5.545845E0,9.578581E-1,7.0532703E0,3.6684763E-1,-9.0863603E-1,7.22616E0,-4.3143246E-2,-5.90744E-2,1.7272263E1,7.186127E-1,-7.209778E-2,-5.059945E0,-3.5936046E-1,1.2204652E0,-2.9960632E-1,-1.6751612E1,-3.4902878E0,-1.9832181E0,3.8725823E-1,1.2959071E1,-8.4271747E-1,8.780013E-1,2.8008583E0,1.0804253E0,-2.2061606E-1,-5.13396E0,-2.0956951E-1],"categories":[],"categories_nodes":[],"categories_segments":[],"categories_sizes":[],"default_left":[1,1,1,1,1,1,1,1,1,0,0,1,1,1,1,1,1,1,1,1,1,1,1,0,0,1,1,1,0,1,1,0,1,1,1,1,1,1,1,1,1,1,1,1,1,1,1,0,0,0,0,0,0,0,0,0,0,0,0,0,0,0,0,0,0,0,0,0,0,0,0,0,0,0,0,0,0,0,0,0,0,0,0],"id":12,"left_children":[1,3,5,7,9,11,13,15,17,-1,-1,19,21,23,25,27,29,31,33,35,37,39,41,-1,-1,43,45,47,-1,49,51,-1,53,55,57,59,61,63,65,67,69,71,73,75,77,79,81,-1,-1,-1,-1,-1,-1,-1,-1,-1,-1,-1,-1,-1,-1,-1,-1,-1,-1,-1,-1,-1,-1,-1,-1,-1,-1,-1,-1,-1,-1,-1,-1,-1,-1,-1,-1],"loss_changes":[1.3040312E3,1.0441293E4,5.177816E2,1.3191875E3,4.5511777E3,2.736553E2,7.4643022E3,8.5832306E2,9.987825E2,0E0,0E0,1.5137146E3,3.8145645E2,1.9997461E2,8.0562994E2,5.0319604E3,8.7083276E2,2.0402197E2,5.1587286E2,4.7251984E2,5.016145E2,2.0159923E2,1.4159545E3,0E0,0E0,5.513511E2,4.3176257E2,1.004498E2,0E0,3.292558E2,2.4491245E3,0E0,1.985791E2,2.4930727E2,1.5591925E2,2.5461293E2,1.2717233E3,2.688164E2,6.757338E-1,1.9607684E2,5.393723E2,6.4422156E2,4.799837E2,3.1362036E2,2.5434167E2,3.1695514E2,1.3704944E2,0E0,0E0,0E0,0E0,0E0,0E0,0E0,0E0,0E0,0E0,0E0,0E0,0E0,0E0,0E0,0E0,0E0,0E0,0E0,0E0,0E0,0E0,0E0,0E0,0E0,0E0,0E0,0E0,0E0,0E0,0E0,0E0,0E0,0E0,0E0,0E0],"parents":[2147483647,0,0,1,1,2,2,3,3,4,4,5,5,6,6,7,7,8,8,11,11,12,12,13,13,14,14,15,15,16,16,17,17,18,18,19,19,20,20,21,21,22,22,25,25,26,26,27,27,29,29,30,30,32,32,33,33,34,34,35,35,36,36,37,37,38,38,39,39,40,40,41,41,42,42,43,43,44,44,45,45,46,46],"right_children":[2,4,6,8,10,12,14,16,18,-1,-1,20,22,24,26,28,30,32,34,36,38,40,42,-1,-1,44,46,48,-1,50,52,-1,54,56,58,60,62,64,66,68,70,72,74,76,78,80,82,-1,-1,-1,-1,-1,-1,-1,-1,-1,-1,-1,-1,-1,-1,-1,-1,-1,-1,-1,-1,-1,-1,-1,-1,-1,-1,-1,-1,-1,-1,-1,-1,-1,-1,-1,-1],"split_conditions":[3.48E2,3.4495E4,2.4406758E5,1.5368E4,7.5E1,2.007E3,2.45E3,2.5E0,2.26E2,2.0522827E1,4.9102736E0,1.466435E5,9.5E1,1.5E3,1.848E4,3.14E2,1.012E3,8E1,7.8E1,5.60053E4,1.338455E4,5.8230625E4,5.41E2,1.652445E1,6.494414E0,7.75E2,1.05E2,4.315E2,1.3487244E1,2.75E1,1.35E1,6.387315E0,1.065E2,1.1E2,2.655E2,9.5E1,1.115E3,2.30532E3,1.929E3,2.75E1,1.272E4,1.1E2,1.9E2,1.206404E4,3.9221775E5,5.31915E4,1.0148E3,-1.0947179E0,5.881821E-1,4.3608904E-1,-4.2518935E-1,4.535102E0,3.4915465E-1,1.5521073E0,3.9505954E0,-2.3852952E0,1.6637536E0,2.8735745E-1,2.115981E0,1.1005429E-1,-2.7259082E-1,2.167848E0,-1.2942974E-2,-1.7722322E-2,5.181679E0,2.1558382E-1,-2.1629333E-2,-1.5179836E0,-1.0780814E-1,3.6613956E-1,-8.98819E-2,-5.0254836E0,-1.0470864E0,-5.9496546E-1,1.1617748E-1,3.8877215E0,-2.5281525E-1,2.634004E-1,8.402575E-1,3.2412758E-1,-6.618482E-2,-1.540188E0,-6.287086E-2],"split_indices":[1,2,2,2,0,1,1,1,1,0,0,2,0,1,1,2,2,0,3,2,4,2,3,0,0,3,0,3,0,0,1,0,3,0,1,0,1,4,1,0,1,0,0,4,2,1,5,0,0,0,0,0,0,0,0,0,0,0,0,0,0,0,0,0,0,0,0,0,0,0,0,0,0,0,0,0,0,0,0,0,0,0,0],"split_type":[0,0,0,0,0,0,0,0,0,0,0,0,0,0,0,0,0,0,0,0,0,0,0,0,0,0,0,0,0,0,0,0,0,0,0,0,0,0,0,0,0,0,0,0,0,0,0,0,0,0,0,0,0,0,0,0,0,0,0,0,0,0,0,0,0,0,0,0,0,0,0,0,0,0,0,0,0,0,0,0,0,0,0],"sum_hessian":[4.793E3,7.11E2,4.082E3,7.03E2,8E0,2.964E3,1.118E3,6.61E2,4.2E1,2E0,6E0,9.37E2,2.027E3,4E0,1.114E3,1.3E1,6.48E2,1.8E1,2.4E1,9.26E2,1.1E1,1.67E3,3.57E2,1E0,3E0,2.85E2,8.29E2,1.1E1,2E0,2.35E2,4.13E2,2E0,1.6E1,6E0,1.8E1,8.15E2,1.11E2,8E0,3E0,6.85E2,9.85E2,1.5E1,3.42E2,8E0,2.77E2,8.02E2,2.7E1,6E0,5E0,5E1,1.85E2,1.2E1,4.01E2,8E0,8E0,5E0,1E0,7E0,1.1E1,6.05E2,2.1E2,3.4E1,7.7E1,1E0,7E0,1E0,2E0,8E0,6.77E2,3.78E2,6.07E2,7E0,8E0,1.58E2,1.84E2,6E0,2E0,1.43E2,1.34E2,2.96E2,5.06E2,1.9E1,8E0],"tree_param":{"num_deleted":"0","num_feature":"6","num_nodes":"83","size_leaf_vector":"0"}},{"base_weights":[3.2329625E-1,2.336796E0,2.3650134E-1,1.7809858E0,3.78708E1,5.658406E-1,-6.838824E-2,3.6789423E-1,5.8998556E0,4.7682852E-1,1.0288822E1,-2.8451043E-1,7.9129016E-1,9.006251E0,-1.9407058E-1,1.2138453E1,3.3798497E0,2.1401536E-1,1.9905883E0,3.9880146E1,4.7853336E0,-1.2976977E-1,-1.4191589E0,2.7265947E0,2.4874158E-1,3.3413565E-1,3.919159E1,1.4421705E0,-2.7963421E0,3.3932312E0,1.5297218E1,7.341451E0,1.18935E-2,-5.6395274E-1,4.2840794E-1,3.3584297E1,1.690055E0,-5.436432E-1,1.0174715E1,5.3153347E-2,-7.803072E-1,-1.3094439E1,-1.2062374E0,2.2923343E0,1.3118587E1,7.712505E-1,-3.7546232E-1,-2.4454906E0,2.4910095E0,-1.7058635E0,3.159079E0,-7.409782E0,-9.963935E-1,-1.3806152E-1,4.31057E0,2.381363E0,1.6467718E1,3.1698737E0,8.381177E0,-1.8585314E1,2.9476688E0,-8.671325E-1,1.6079882E-1,4.4376245E0,2.982302E-1,1.0463973E1,3.9912476E1,9.702883E-1,5.5861797E0,8.3231354E-1,-9.9167156E-1,1.141454E1,3.890218E0,-2.1455574E-1,8.880041E-1,-1.2557999E0,-4.3388075E-1,-3.5243807E0,-5.613202E-1,5.6172347E0,1.6084315E0,1.0825292E0,-1.8672278E0,-1.734263E0,5.969051E-1],"categories":[],"categories_nodes":[],"categories_segments":[],"categories_sizes":[],"default_left":[1,1,1,1,0,1,1,1,1,1,1,1,1,1,1,1,1,1,1,0,1,1,1,1,1,1,0,1,1,1,1,1,1,1,1,1,1,1,1,1,1,0,1,1,0,1,1,0,0,0,0,0,0,0,0,0,0,0,0,0,0,0,0,0,0,0,0,0,0,0,0,0,0,0,0,0,0,0,0,0,0,0,0,0,0],"id":13,"left_children":[1,3,5,7,-1,9,11,13,15,17,19,21,23,25,27,29,31,33,35,-1,37,39,41,43,45,47,-1,49,51,53,55,57,59,61,63,65,67,69,71,73,75,-1,77,79,-1,81,83,-1,-1,-1,-1,-1,-1,-1,-1,-1,-1,-1,-1,-1,-1,-1,-1,-1,-1,-1,-1,-1,-1,-1,-1,-1,-1,-1,-1,-1,-1,-1,-1,-1,-1,-1,-1,-1,-1],"loss_changes":[8.3725415E2,3.8430847E3,4.616332E2,1.1386162E3,0E0,1.9077668E3,4.43905E2,7.153525E2,7.4503906E2,8.7123254E2,3.0662705E3,3.349909E2,5.0332022E2,2.3428413E3,5.9588696E2,3.3483032E2,4.9358524E2,3.118064E2,3.0196084E3,0E0,5.224894E2,2.0007767E2,5.534804E2,4.4377496E2,1.2292277E2,5.405417E1,0E0,4.7020917E2,4.4103046E2,1.6792076E1,1.11964355E2,4.7166748E1,1.2013251E3,8.8910355E1,7.6327563E2,2.1285645E1,8.975647E2,6.9900584E0,2.5720032E1,2.9364227E2,6.023799E1,0E0,3.3589407E2,2.2290369E2,0E0,1.7038821E2,2.2829079E2,0E0,0E0,0E0,0E0,0E0,0E0,0E0,0E0,0E0,0E0,0E0,0E0,0E0,0E0,0E0,0E0,0E0,0E0,0E0,0E0,0E0,0E0,0E0,0E0,0E0,0E0,0E0,0E0,0E0,0E0,0E0,0E0,0E0,0E0,0E0,0E0,0E0,0E0],"parents":[2147483647,0,0,1,1,2,2,3,3,5,5,6,6,7,7,8,8,9,9,10,10,11,11,12,12,13,13,14,14,15,15,16,16,17,17,18,18,20,20,21,21,22,22,23,23,24,24,25,25,27,27,28,28,29,29,30,30,31,31,32,32,33,33,34,34,35,35,36,36,37,37,38,38,39,39,40,40,42,42,43,43,45,45,46,46],"right_children":[2,4,6,8,-1,10,12,14,16,18,20,22,24,26,28,30,32,34,36,-1,38,40,42,44,46,48,-1,50,52,54,56,58,60,62,64,66,68,70,72,74,76,-1,78,80,-1,82,84,-1,-1,-1,-1,-1,-1,-1,-1,-1,-1,-1,-1,-1,-1,-1,-1,-1,-1,-1,-1,-1,-1,-1,-1,-1,-1,-1,-1,-1,-1,-1,-1,-1,-1,-1,-1,-1,-1],"split_conditions":[4.25E1,1.5780001E1,4.9525E3,1.26773E3,1.136124E1,3.478E5,5.227737E5,1.5E0,1.9E1,8.4744E4,3E3,9.5E1,5.062E3,2.195E2,8E1,8.3313E2,9.5227E2,2.941325E3,1.89E2,1.1964045E1,3.9758E5,4.27595E4,1.0905E3,2.354345E3,1.075225E5,8.45E1,1.1757477E1,1.543E2,7.88995E2,5.95815E2,4.5E0,3.8684E2,1.00739E3,2.57938E3,2.25E1,4E1,1.1E2,1.6265E3,4.5785E3,2.004214E5,4.5E1,-3.9283316E0,1.1E2,6.627E3,3.9355762E0,1.05E2,1.1321495E6,-7.336472E-1,7.473029E-1,-5.1175904E-1,9.4772375E-1,-2.2229347E0,-2.9891807E-1,-4.141846E-2,1.2931709E0,7.144089E-1,4.9403157E0,9.509621E-1,2.5143533E0,-5.5755944E0,8.8430065E-1,-2.6013976E-1,4.823965E-2,1.3312874E0,8.946906E-2,3.139192E0,1.1973743E1,2.910865E-1,1.675854E0,2.4969406E-1,-2.9750147E-1,3.4243622E0,1.1670655E0,-6.436673E-2,2.6640126E-1,-3.7673998E-1,-1.3016424E-1,-1.0573143E0,-1.6839606E-1,1.6851705E0,4.8252946E-1,3.2475877E-1,-5.601684E-1,-5.2027893E-1,1.7907155E-1],"split_indices":[1,5,1,2,0,2,2,1,1,2,1,0,3,2,0,4,4,2,3,0,2,1,3,5,1,2,0,2,4,4,1,4,4,4,3,0,0,3,1,2,0,0,0,1,0,0,2,0,0,0,0,0,0,0,0,0,0,0,0,0,0,0,0,0,0,0,0,0,0,0,0,0,0,0,0,0,0,0,0,0,0,0,0,0,0],"split_type":[0,0,0,0,0,0,0,0,0,0,0,0,0,0,0,0,0,0,0,0,0,0,0,0,0,0,0,0,0,0,0,0,0,0,0,0,0,0,0,0,0,0,0,0,0,0,0,0,0,0,0,0,0,0,0,0,0,0,0,0,0,0,0,0,0,0,0,0,0,0,0,0,0,0,0,0,0,0,0,0,0,0,0,0,0],"sum_hessian":[4.793E3,1.97E2,4.596E3,1.95E2,2E0,2.209E3,2.387E3,1.46E2,4.9E1,2.19E3,1.9E1,1.908E3,4.79E2,8E0,1.38E2,1.3E1,3.6E1,1.867E3,3.23E2,2E0,1.7E1,1.68E3,2.28E2,1.04E2,3.75E2,7E0,1E0,8.5E1,5.3E1,4E0,9E0,1.6E1,2E1,4.03E2,1.464E3,2E0,3.21E2,9E0,8E0,1.312E3,3.68E2,3E0,2.25E2,1.01E2,3E0,2.04E2,1.71E2,3E0,4E0,3E1,5.5E1,1.4E1,3.9E1,1E0,3E0,1E0,8E0,4E0,1.2E1,2E0,1.8E1,2.84E2,1.19E2,4.5E1,1.419E3,1E0,1E0,2.72E2,4.9E1,2E0,7E0,6E0,2E0,9.94E2,3.18E2,1.54E2,2.14E2,4.8E1,1.77E2,1.6E1,8.5E1,1.83E2,2.1E1,7.1E1,1E2],"tree_param":{"num_deleted":"0","num_feature":"6","num_nodes":"85","size_leaf_vector":"0"}},{"base_weights":[2.3915489E-1,1.1208445E0,1.0426821E-1,8.422087E-1,3.0237238E1,-8.280837E-1,1.7644353E-1,6.35566E-1,9.903851E0,4.694922E1,1.0143944E1,-5.4543406E-1,-2.2947426E0,-4.966254E-2,4.5557198E-1,6.240843E0,5.048066E-1,1.349267E1,5.525652E0,-1.4128357E0,-2.788251E-1,-6.0569887E0,-1.6130648E0,7.2741455E-1,-1.8014012E-1,2.3499287E1,3.884756E-1,-6.5174574E-1,3.1730917E1,-3.4867245E-1,1.1577517E0,2.7032216E0,1.7267805E1,-5.611447E-1,-2.2745457E0,-1.8089288E0,-8.263374E-2,-6.870792E0,-5.870843E-1,1.2615199E1,-2.639858E0,4.1146874E-1,1.42091675E1,-5.9617893E-3,-7.940608E-1,8.9554825E0,4.083725E1,3.7034607E0,2.4384922E-1,-1.6578152E0,1.774847E0,7.040322E0,-4.6100825E-1,8.990234E0,8.219562E-1,-2.048664E0,6.1034966E0,7.236717E0,2.1542957E1,5.9511787E-1,-6.6140825E-1,-5.7484746E0,-1.4887781E0,-2.6219912E0,-1.0443479E0,4.8863348E-2,-2.4842322E0,2.5023575E0,1.642044E1,-3.3581033E0,-1.9629763E0,2.6183498E0,-1.2605163E-1,-4.6271494E-1,1.9853984E-1,-2.9005432E0,4.4816038E-1,1.6940858E0,9.637469E0,7.972527E-1,-1.2107548E-1],"categories":[],"categories_nodes":[],"categories_segments":[],"categories_sizes":[],"default_left":[1,1,1,1,1,1,1,1,1,0,0,1,1,1,1,1,1,1,0,1,1,1,1,1,1,1,1,1,0,1,1,1,1,1,1,1,1,0,0,1,1,1,0,1,1,0,0,1,1,0,0,0,0,0,0,0,0,0,0,0,0,0,0,0,0,0,0,0,0,0,0,0,0,0,0,0,0,0,0,0,0],"id":14,"left_children":[1,3,5,7,9,11,13,15,17,-1,-1,19,21,23,25,27,29,31,-1,33,35,37,39,41,43,45,47,49,-1,51,53,55,57,59,61,63,65,-1,-1,67,69,71,-1,73,75,-1,-1,77,79,-1,-1,-1,-1,-1,-1,-1,-1,-1,-1,-1,-1,-1,-1,-1,-1,-1,-1,-1,-1,-1,-1,-1,-1,-1,-1,-1,-1,-1,-1,-1,-1],"loss_changes":[5.700249E2,5.13432E3,2.8001688E2,1.1752668E3,1.5385425E3,1.2269899E2,2.4370052E2,4.4980817E2,1.4542017E2,0E0,0E0,5.7882843E1,1.1333238E2,2.1649971E2,2.6626177E3,2.4803767E3,3.3755505E2,2.3844263E2,0E0,4.2024384E1,5.808799E1,2.7126251E1,6.4690063E2,1.3018209E3,1.9546638E2,8.950823E2,8.2564166E2,3.2238216E1,0E0,2.215484E2,8.947389E2,6.097717E1,5.852185E1,3.9874773E0,7.060312E1,1.0938072E1,5.4755344E1,0E0,0E0,7.435556E1,1.2854797E1,3.5738934E2,0E0,1.331965E2,1.0584536E3,0E0,0E0,8.4217584E2,3.3392087E2,0E0,0E0,0E0,0E0,0E0,0E0,0E0,0E0,0E0,0E0,0E0,0E0,0E0,0E0,0E0,0E0,0E0,0E0,0E0,0E0,0E0,0E0,0E0,0E0,0E0,0E0,0E0,0E0,0E0,0E0,0E0,0E0],"parents":[2147483647,0,0,1,1,2,2,3,3,4,4,5,5,6,6,7,7,8,8,11,11,12,12,13,13,14,14,15,15,16,16,17,17,19,19,20,20,21,21,22,22,23,23,24,24,25,25,26,26,27,27,29,29,30,30,31,31,32,32,33,33,34,34,35,35,36,36,39,39,40,40,41,41,43,43,44,44,47,47,48,48],"right_children":[2,4,6,8,10,12,14,16,18,-1,-1,20,22,24,26,28,30,32,-1,34,36,38,40,42,44,46,48,50,-1,52,54,56,58,60,62,64,66,-1,-1,68,70,72,-1,74,76,-1,-1,78,80,-1,-1,-1,-1,-1,-1,-1,-1,-1,-1,-1,-1,-1,-1,-1,-1,-1,-1,-1,-1,-1,-1,-1,-1,-1,-1,-1,-1,-1,-1,-1,-1],"split_conditions":[2.785E2,3.1795E4,2.75E1,3.2114998E1,7.5E1,2.25E1,1.7393E2,2.5E0,3.739E1,1.4084766E1,3.0431833E0,1.05E1,1.39025E4,6.41E2,1.005E3,3.14E2,1.268E3,1.707264E4,1.6576957E0,3.5105E3,1.3936E4,8.28E2,1.0795E3,4.9312E4,9.5E1,2.3E5,7.92E2,1.055885E4,9.519276E0,8.9575E1,1.9E1,1.1E2,3.3515E1,8.955E0,6.35325E4,1.59597E3,4.8821002E2,-2.0612376E0,-1.7612529E-1,6.7E2,1.2419755E4,5.5E1,4.2627506E0,1.667214E4,1.9E2,2.6866448E0,1.2251176E1,1.1E2,2.51435E4,-4.9734458E-1,5.3245413E-1,2.1120965E0,-1.3830248E-1,2.6970704E0,2.4658687E-1,-6.145992E-1,1.8310491E0,2.1710153E0,6.4628873E0,1.7853537E-1,-1.9842248E-1,-1.7245425E0,-4.4663346E-1,-7.865974E-1,-3.1330436E-1,1.4659005E-2,-7.4526966E-1,7.5070727E-1,4.926132E0,-1.007431E0,-5.8889294E-1,7.85505E-1,-3.7815493E-2,-1.388145E-1,5.9561953E-2,-8.70163E-1,1.3444813E-1,5.082258E-1,2.8912408E0,2.3917583E-1,-3.6322646E-2],"split_indices":[1,2,0,5,0,0,5,1,5,0,0,0,2,1,1,2,2,2,0,1,2,1,1,2,0,2,3,4,0,4,1,0,5,5,2,4,5,0,0,1,4,0,0,2,0,0,0,0,1,0,0,0,0,0,0,0,0,0,0,0,0,0,0,0,0,0,0,0,0,0,0,0,0,0,0,0,0,0,0,0,0],"split_type":[0,0,0,0,0,0,0,0,0,0,0,0,0,0,0,0,0,0,0,0,0,0,0,0,0,0,0,0,0,0,0,0,0,0,0,0,0,0,0,0,0,0,0,0,0,0,0,0,0,0,0,0,0,0,0,0,0,0,0,0,0,0,0,0,0,0,0,0,0,0,0,0,0,0,0,0,0,0,0,0,0],"sum_hessian":[4.793E3,6.35E2,4.158E3,6.3E2,5E0,2.98E2,3.86E3,6.17E2,1.3E1,2E0,3E0,2.51E2,4.7E1,2.133E3,1.727E3,1.3E1,6.04E2,6E0,7E0,5.8E1,1.93E2,6E0,4.1E1,3.06E2,1.827E3,4E0,1.723E3,1.1E1,2E0,2.62E2,3.42E2,2E0,4E0,3E1,2.8E1,2.1E1,1.72E2,5E0,1E0,2E0,3.9E1,3E2,6E0,1.424E3,4.03E2,3E0,1E0,7.1E1,1.652E3,8E0,3E0,3E0,2.59E2,1.3E1,3.29E2,1E0,1E0,2E0,2E0,2E0,2.8E1,4E0,2.4E1,9E0,1.2E1,1.64E2,8E0,1E0,1E0,1.7E1,2.2E1,5.8E1,2.42E2,4.4E2,9.84E2,1.49E2,2.54E2,5.4E1,1.7E1,6.56E2,9.96E2],"tree_param":{"num_deleted":"0","num_feature":"6","num_nodes":"81","size_leaf_vector":"0"}},{"base_weights":[1.8068863E-1,1.114089E0,9.731584E-2,8.316081E-1,3.7559406E1,-6.2974054E-1,1.5735853E-1,3.849693E-1,6.005963E0,-4.3524675E0,-5.1396984E-1,4.419701E-1,-4.1923434E-2,6.5981402E0,2.2546929E-1,7.443779E0,2.2421708E0,-1.2501497E0,-4.558264E0,5.8045845E0,-5.511574E-1,3.5345992E-1,1.6786915E1,-2.3529537E-1,5.5341727E-1,2.846058E-1,2.8553207E1,-1.8909079E-1,1.7389197E0,8.00537E0,-2.17482E0,1.1798065E1,-1.3049147E-1,-1.4066625E0,-3.568448E-1,7.75001E-1,-1.8212003E-1,3.4711655E1,1.0207365E1,-6.715556E-2,-1.4232336E0,1.1319127E1,4.414797E-1,-1.5222458E0,1.6731659E0,-5.660188E-2,-1.2315041E1,1.1092819E1,1.2025565E0,5.875146E0,1.2351741E1,-4.9156594E0,1.9389365E0,-7.955126E-1,-5.279698E0,4.026262E0,-4.5585927E-1,5.652948E-1,9.433046E0,-1.1826628E0,5.54558E-1,2.7305448E-1,-3.3686155E-1,-1.1398566E1,-1.143438E0,1.2252259E1,3.3267326E0,1.0168928E0,-5.6293514E-2],"categories":[],"categories_nodes":[],"categories_segments":[],"categories_sizes":[],"default_left":[1,1,1,1,0,1,1,1,1,1,1,1,1,1,1,1,1,0,0,0,1,1,1,1,1,1,0,1,1,1,0,0,1,1,1,1,1,0,0,1,1,1,1,0,0,0,0,0,0,0,0,0,0,0,0,0,0,0,0,0,0,0,0,0,0,0,0,0,0],"id":15,"left_children":[1,3,5,7,-1,9,11,13,15,17,19,21,23,25,27,29,31,-1,-1,-1,33,35,37,39,41,43,-1,45,47,49,-1,-1,51,53,55,57,59,-1,-1,61,63,65,67,-1,-1,-1,-1,-1,-1,-1,-1,-1,-1,-1,-1,-1,-1,-1,-1,-1,-1,-1,-1,-1,-1,-1,-1,-1,-1],"loss_changes":[3.729616E2,4.014743E3,1.9226585E2,9.013153E2,0E0,1.4257314E2,2.3069043E2,3.5626364E2,1.5107068E2,6.859436E-1,8.003493E1,2.4172788E3,2.756176E2,1.2394001E3,2.2180672E2,1.3624817E2,2.2826863E2,0E0,0E0,0E0,5.369079E1,3.7649792E2,7.0711597E2,3.608341E2,7.023892E2,2.2618345E1,0E0,4.4592496E2,3.6795895E2,1.2186536E2,0E0,0E0,9.86542E1,1.3782025E2,1.17711006E2,1.6886648E3,5.424081E2,0E0,0E0,1.4543457E2,6.121625E2,3.987732E0,1.6675671E2,0E0,0E0,0E0,0E0,0E0,0E0,0E0,0E0,0E0,0E0,0E0,0E0,0E0,0E0,0E0,0E0,0E0,0E0,0E0,0E0,0E0,0E0,0E0,0E0,0E0,0E0],"parents":[2147483647,0,0,1,1,2,2,3,3,5,5,6,6,7,7,8,8,9,9,10,10,11,11,12,12,13,13,14,14,15,15,16,16,20,20,21,21,22,22,23,23,24,24,25,25,27,27,28,28,29,29,32,32,33,33,34,34,35,35,36,36,39,39,40,40,41,41,42,42],"right_children":[2,4,6,8,-1,10,12,14,16,18,20,22,24,26,28,30,32,-1,-1,-1,34,36,38,40,42,44,-1,46,48,50,-1,-1,52,54,56,58,60,-1,-1,62,64,66,68,-1,-1,-1,-1,-1,-1,-1,-1,-1,-1,-1,-1,-1,-1,-1,-1,-1,-1,-1,-1,-1,-1,-1,-1,-1,-1],"split_conditions":[1.19E2,2.9875E4,2.75E1,7.29006E3,1.1267822E1,1.525E2,4.196E3,1.5E0,9.9E1,3.6710498E2,1.57E2,3.3167084E5,4.477737E5,2.195E2,1.81246E3,5.7429854E3,6.25E1,-3.7504494E-1,-1.3674792E0,1.7413754E0,1.3936E4,9.5E1,1.5E3,9.5E1,5.724E3,8.45E1,8.565963E0,1.8022649E3,1.89048E3,1.1E2,-6.5244603E-1,3.5394197E0,8.59E3,2.25E1,4.22E2,7.1985E4,4.201335E3,1.0413497E1,3.0622096E0,1.7315E4,1.025E3,2.424452E4,6.99965E4,-4.5667374E-1,5.019498E-1,-1.6980564E-2,-3.6945124E0,3.3278458E0,3.6076695E-1,1.7625438E0,3.7055223E0,-1.4746978E0,5.8168095E-1,-2.386538E-1,-1.5839094E0,1.2078786E0,-1.3675779E-1,1.6958845E-1,2.829914E0,-3.5479885E-1,1.663674E-1,8.191635E-2,-1.0105847E-1,-3.41957E0,-3.430314E-1,3.675678E0,9.980198E-1,3.0506784E-1,-1.6888054E-2],"split_indices":[1,2,0,2,0,1,1,1,1,4,1,2,2,2,4,4,0,0,0,0,2,0,1,0,1,2,0,4,4,0,0,0,2,0,1,2,4,0,0,1,3,4,1,0,0,0,0,0,0,0,0,0,0,0,0,0,0,0,0,0,0,0,0,0,0,0,0,0,0],"split_type":[0,0,0,0,0,0,0,0,0,0,0,0,0,0,0,0,0,0,0,0,0,0,0,0,0,0,0,0,0,0,0,0,0,0,0,0,0,0,0,0,0,0,0,0,0,0,0,0,0,0,0,0,0,0,0,0,0,0,0,0,0,0,0,0,0,0,0,0,0],"sum_hessian":[4.793E3,3.92E2,4.401E3,3.9E2,2E0,3.35E2,4.066E3,3.6E2,3E1,9E0,3.26E2,1.674E3,2.392E3,8E0,3.52E2,2.1E1,9E0,1E0,8E0,1E0,3.25E2,1.666E3,8E0,1.806E3,5.86E2,7E0,1E0,2.77E2,7.5E1,2E1,1E0,1E0,8E0,5.9E1,2.66E2,9.32E2,7.34E2,1E0,7E0,1.583E3,2.23E2,5E0,5.81E2,3E0,4E0,2.75E2,2E0,3E0,7.2E1,1.5E1,5E0,2E0,6E0,5.2E1,7E0,5E0,2.61E2,9.11E2,2.1E1,3.11E2,4.23E2,7E2,8.83E2,5E0,2.18E2,4E0,1E0,2.69E2,3.12E2],"tree_param":{"num_deleted":"0","num_feature":"6","num_nodes":"69","size_leaf_vector":"0"}},{"base_weights":[1.3566689E-1,5.1601666E-1,-2.7299654E-2,4.6073627E-1,2.6804895E1,-2.7074125E-1,2.6287767E-1,1.2406077E-1,1.8752998E0,-1.0810331E-1,-1.024365E0,6.36865E0,1.6559376E-1,1.9560401E0,-1.3325342E-2,1.2469666E1,1.1753786E0,-3.4536928E-1,2.1412309E-1,-3.3647573E0,3.1472033E-1,1.5469513E1,3.1595008E0,1.4682782E0,4.4820108E-2,6.947367E-1,6.66361E0,-5.723687E-1,3.9701948E-1,2.9149292E1,6.813367E0,1.0226762E0,1.0692663E1,-5.063477E-2,-6.2280846E-1,1.8056841E0,-2.385117E-2,2.948358E0,-4.174461E0,5.690065E-1,-1.8494593E0,1.0962746E-2,6.6566586E0,5.175879E0,2.3001513E-1,-4.309206E-2,1.621808E0,2.0927248E0,-3.7173975E0,4.1023097E0,1.1990268E1,-4.4564608E-1,-2.0022218E0,3.28639E0,1.98777E-1,3.8837585E0,1.0072219E1,4.5092473E0,6.4419144E-1,1.3425255E0,1.3361867E1,-3.954275E-1,3.7469506E-1,-4.8608294E-1,-1.8303828E0,3.018411E0,4.2654252E-1,-3.9695147E-1,3.247177E-1,-8.294705E-1,-6.3043847E0,1.6027945E0,3.3555686E-1,-3.482285E0,4.398606E0,5.9968567E-1,-1.8649632E-1,3.4321532E0,8.549832E0,-2.2943687E0,6.3249993E0,1.7581774E0,-2.6532907E0,5.7353467E-2,-1.2590566E0,7.3080077E0,8.095373E-1],"categories":[],"categories_nodes":[],"categories_segments":[],"categories_sizes":[],"default_left":[1,1,1,1,0,1,1,1,1,1,1,1,1,1,1,1,1,1,1,1,1,0,1,1,1,1,1,1,1,0,1,1,1,1,1,1,1,0,1,1,1,1,1,1,1,1,1,0,0,0,0,0,0,0,0,0,0,0,0,0,0,0,0,0,0,0,0,0,0,0,0,0,0,0,0,0,0,0,0,0,0,0,0,0,0,0,0],"id":16,"left_children":[1,3,5,7,-1,9,11,13,15,17,19,21,23,25,27,29,31,33,35,37,39,-1,41,43,45,47,49,51,53,-1,55,57,59,61,63,65,67,-1,69,71,73,75,77,79,81,83,85,-1,-1,-1,-1,-1,-1,-1,-1,-1,-1,-1,-1,-1,-1,-1,-1,-1,-1,-1,-1,-1,-1,-1,-1,-1,-1,-1,-1,-1,-1,-1,-1,-1,-1,-1,-1,-1,-1,-1,-1],"loss_changes":[2.9716675E2,2.0774375E3,2.3721378E2,6.836607E2,0E0,2.2369807E2,9.089432E2,2.9223645E2,2.0319443E3,1.1498335E2,1.0164701E3,6.5206866E2,2.3734508E2,4.7632217E2,2.4820921E2,1.405259E3,3.66926E2,7.078206E1,2.4168591E2,6.154945E2,1.149688E2,0E0,2.0913477E2,5.8645557E2,1.9166545E2,4.0870676E2,1.827461E2,8.209488E1,3.567714E2,0E0,9.4542114E1,3.3623602E2,8.189102E1,6.1888077E1,7.274765E1,1.375318E2,7.243733E1,0E0,7.428512E2,4.435094E1,2.3976125E2,1.3905746E0,2.5596588E1,2.8920673E2,4.320624E2,1.6007326E2,3.3125146E2,0E0,0E0,0E0,0E0,0E0,0E0,0E0,0E0,0E0,0E0,0E0,0E0,0E0,0E0,0E0,0E0,0E0,0E0,0E0,0E0,0E0,0E0,0E0,0E0,0E0,0E0,0E0,0E0,0E0,0E0,0E0,0E0,0E0,0E0,0E0,0E0,0E0,0E0,0E0,0E0],"parents":[2147483647,0,0,1,1,2,2,3,3,5,5,6,6,7,7,8,8,9,9,10,10,11,11,12,12,13,13,14,14,15,15,16,16,17,17,18,18,19,19,20,20,22,22,23,23,24,24,25,25,26,26,27,27,28,28,30,30,31,31,32,32,33,33,34,34,35,35,36,36,38,38,39,39,40,40,41,41,42,42,43,43,44,44,45,45,46,46],"right_children":[2,4,6,8,-1,10,12,14,16,18,20,22,24,26,28,30,32,34,36,38,40,-1,42,44,46,48,50,52,54,-1,56,58,60,62,64,66,68,-1,70,72,74,76,78,80,82,84,86,-1,-1,-1,-1,-1,-1,-1,-1,-1,-1,-1,-1,-1,-1,-1,-1,-1,-1,-1,-1,-1,-1,-1,-1,-1,-1,-1,-1,-1,-1,-1,-1,-1,-1,-1,-1,-1,-1,-1,-1],"split_conditions":[1.494E3,1.3804688E5,1.64352E5,3.0275002E1,8.041469E0,9.5E1,2.4345E3,1.25E1,2.375E2,6.34635E4,1.9E2,1.0611465E4,1.2715E3,7.2492004E2,2.6539E3,8E1,2.3455E3,4.2645E3,7.035E2,1.6880001E1,2.7E2,4.640854E0,2.7864E2,5.715005E3,2.1804302E3,7.7E-1,1.559485E3,2.39973E3,2.15E1,8.744788E0,1.1E2,1.15434E3,6.5E1,2.01575E4,9.6235E1,5.585E3,4.5E1,8.845075E-1,1.98E3,2.262E3,1.0277E5,8.685E2,2.01264E5,1.686429E5,4.0883502E2,1.250095E5,1.037445E5,6.2781745E-1,-1.1152192E0,1.230693E0,3.5970805E0,-1.3369383E-1,-6.006666E-1,9.8591703E-1,5.9633102E-2,1.1651276E0,3.0216658E0,1.3527743E0,1.9325744E-1,4.0275767E-1,4.00856E0,-1.18628256E-1,1.12408526E-1,-1.458249E-1,-5.491149E-1,9.055233E-1,1.2796277E-1,-1.19085446E-1,9.741531E-2,-2.4884117E-1,-1.8913155E0,4.808384E-1,1.0066707E-1,-1.0446856E0,1.3195817E0,1.7990571E-1,-5.59489E-2,1.029646E0,2.5649498E0,-6.883106E-1,1.8974999E0,5.2745324E-1,-7.9598725E-1,1.7206041E-2,-3.77717E-1,2.1924024E0,2.428612E-1],"split_indices":[1,2,2,5,0,0,1,1,1,2,0,4,3,2,2,0,3,1,3,5,0,0,5,4,5,5,4,2,3,0,0,4,0,2,5,1,0,0,1,1,2,3,2,2,5,1,1,0,0,0,0,0,0,0,0,0,0,0,0,0,0,0,0,0,0,0,0,0,0,0,0,0,0,0,0,0,0,0,0,0,0,0,0,0,0,0,0],"split_type":[0,0,0,0,0,0,0,0,0,0,0,0,0,0,0,0,0,0,0,0,0,0,0,0,0,0,0,0,0,0,0,0,0,0,0,0,0,0,0,0,0,0,0,0,0,0,0,0,0,0,0,0,0,0,0,0,0,0,0,0,0,0,0,0,0,0,0,0,0,0,0,0,0,0,0,0,0,0,0,0,0,0,0,0,0,0,0],"sum_hessian":[4.793E3,1.437E3,3.356E3,1.435E3,2E0,1.825E3,1.531E3,1.16E3,2.75E2,1.502E3,3.23E2,2.3E1,1.508E3,8E1,1.08E3,1.6E1,2.59E2,8.65E2,6.37E2,1.17E2,2.06E2,5E0,1.8E1,1.27E2,1.381E3,6.4E1,1.6E1,4.57E2,6.23E2,3E0,1.3E1,2.56E2,3E0,4.2E2,4.45E2,8.2E1,5.55E2,1.3E1,1.04E2,1.85E2,2.1E1,1E1,8E0,3.1E1,9.6E1,1.309E3,7.2E1,4.9E1,1.5E1,1.2E1,4E0,4.21E2,3.6E1,3.9E1,5.84E2,8E0,5E0,2.4E1,2.32E2,1E0,2E0,2.32E2,1.88E2,4.01E2,4.4E1,4.3E1,3.9E1,2.68E2,2.87E2,4.1E1,6.3E1,3.3E1,1.52E2,1.7E1,4E0,2E0,8E0,4E0,4E0,4E0,2.7E1,6.3E1,3.3E1,1.21E3,9.9E1,8E0,6.4E1],"tree_param":{"num_deleted":"0","num_feature":"6","num_nodes":"87","size_leaf_vector":"0"}},{"base_weights":[1.0390899E-1,5.0174446E0,9.464745E-2,-3.4445712E-1,2.395633E1,3.3296347E-1,-3.4835838E-2,-1.6506033E0,7.693512E-1,2.8770897E-1,1.9279245E1,-1.13650925E-1,6.628508E-1,-3.0622423E-1,-1.9966549E0,-3.68912E-2,9.856076E-1,2.2981813E1,4.0857697E0,-2.3042746E-2,-4.6157148E-1,5.332493E0,4.603155E-1,5.9184986E-1,-1.9660741E-1,8.009273E0,6.248986E-1,-3.375363E-1,1.4201728E-1,-1.7203697E1,-3.7326494E-1,3.7045906E0,1.24336605E1,7.099355E-1,-1.1521327E0,-5.783911E-1,1.8612922E0,-1.547976E0,-9.169317E-2,1.6826014E1,5.1088095E0,4.8734164E-1,5.122618E0,-8.7378436E-1,-7.864882E-2,1.0711632E0,-1.1114069E-1,-2.978908E-1,-4.203969E0,4.3115606E0,-1.4860401E0,5.734094E-1,6.4622364E0,-2.4566076E0,-3.0506614E-1],"categories":[],"categories_nodes":[],"categories_segments":[],"categories_sizes":[],"default_left":[1,1,1,1,0,1,1,1,0,1,1,1,1,0,0,1,1,0,0,1,1,1,1,1,1,1,1,1,1,0,1,1,0,1,1,0,0,0,0,0,0,0,0,0,0,0,0,0,0,0,0,0,0,0,0],"id":17,"left_children":[1,3,5,7,-1,9,11,13,-1,15,17,19,21,-1,-1,23,25,-1,-1,27,29,31,33,35,37,39,41,43,45,-1,47,49,-1,51,53,-1,-1,-1,-1,-1,-1,-1,-1,-1,-1,-1,-1,-1,-1,-1,-1,-1,-1,-1,-1],"loss_changes":[2.1768521E2,9.2218787E2,1.4769771E2,1.2908265E1,0E0,1.4391802E3,1.7064883E2,1.2494736E0,0E0,3.810733E2,1.3112122E2,8.7879524E1,2.954621E2,0E0,0E0,1.1549911E2,1.3478838E3,0E0,0E0,1.1492545E2,8.4515936E2,1.04218475E2,1.22775246E2,3.4721048E2,1.2986833E2,5.789275E2,3.1241806E2,1.0571816E2,3.416595E2,0E0,1.6448213E2,4.4213837E1,0E0,2.0283876E2,4.4554634E1,0E0,0E0,0E0,0E0,0E0,0E0,0E0,0E0,0E0,0E0,0E0,0E0,0E0,0E0,0E0,0E0,0E0,0E0,0E0,0E0],"parents":[2147483647,0,0,1,1,2,2,3,3,5,5,6,6,7,7,9,9,10,10,11,11,12,12,15,15,16,16,19,19,20,20,21,21,22,22,23,23,24,24,25,25,26,26,27,27,28,28,30,30,31,31,33,33,34,34],"right_children":[2,4,6,8,-1,10,12,14,-1,16,18,20,22,-1,-1,24,26,-1,-1,28,30,32,34,36,38,40,42,44,46,-1,48,50,-1,52,54,-1,-1,-1,-1,-1,-1,-1,-1,-1,-1,-1,-1,-1,-1,-1,-1,-1,-1,-1,-1],"split_conditions":[1.5E0,2.195E2,2.0955E3,8.45E1,7.186899E0,2.3668E5,6.757275E5,6.5E1,2.3080537E-1,1.41012E4,5.25E5,9.5E1,2.618E3,-9.186727E-2,-5.9899646E-1,5.95E1,2.06E2,6.894544E0,1.2257309E0,7.030472E4,1.655E2,1.1E2,2.20001E5,1.11E0,4.0652002E2,7.5E1,1.466435E5,4.5E1,1.662E3,-5.1611094E0,1.12834E3,4.7837E4,3.7300982E0,2.51475E6,1.8258919E6,-1.7351733E-1,5.583877E-1,-4.643928E-1,-2.7507951E-2,5.0478044E0,1.532643E0,1.462025E-1,1.5367855E0,-2.6213533E-1,-2.3594648E-2,3.2134897E-1,-3.334221E-2,-8.936725E-2,-1.2611908E0,1.2934682E0,-4.4581205E-1,1.7202282E-1,1.938671E0,-7.369823E-1,-9.151985E-2],"split_indices":[1,2,1,2,0,2,2,0,0,2,2,0,3,0,0,1,1,0,0,2,3,0,1,5,4,0,2,0,3,0,5,1,0,2,2,0,0,0,0,0,0,0,0,0,0,0,0,0,0,0,0,0,0,0,0],"split_type":[0,0,0,0,0,0,0,0,0,0,0,0,0,0,0,0,0,0,0,0,0,0,0,0,0,0,0,0,0,0,0,0,0,0,0,0,0,0,0,0,0,0,0,0,0,0,0,0,0,0,0,0,0,0,0],"sum_hessian":[4.793E3,8E0,4.785E3,7E0,1E0,1.684E3,3.101E3,3E0,4E0,1.681E3,3E0,2.787E3,3.14E2,1E0,2E0,1.148E3,5.33E2,2E0,1E0,2.212E3,5.75E2,1.2E1,3.02E2,2.32E2,9.16E2,2.5E1,5.08E2,7.61E2,1.451E3,2E0,5.73E2,1.1E1,1E0,2.62E2,4E1,1.21E2,1.11E2,6.5E1,8.51E2,5E0,2E1,4.94E2,1.4E1,2.47E2,5.14E2,3.1E2,1.141E3,5.63E2,1E1,1E1,1E0,2.57E2,5E0,1.5E1,2.5E1],"tree_param":{"num_deleted":"0","num_feature":"6","num_nodes":"55","size_leaf_vector":"0"}},{"base_weights":[7.7399515E-2,3.0616035E0,6.42563E-2,-1.1081947E0,9.97605E0,3.2472029E0,5.421251E-2,-3.5048783E0,6.127269E-1,-1.759379E0,1.418109E1,9.436699E0,9.134372E-1,-2.1642728E0,7.252397E-2,-6.159156E0,-1.7421916E0,2.2952108E0,-1.9587E-1,-1.2811584E0,1.7529772E1,-6.236068E-1,4.143427E0,4.8578423E-2,-6.1192627E0,4.5026827E0,6.4050496E-2,-2.6029062E-1,-2.047594E0,-9.552984E-1,6.1252594E-1,2.0708515E1,2.4073982E0,-3.4105158E0,1.5107127E-1,4.8646407E0,9.8989296E-1,-4.715806E0,8.7505496E-1,-3.2463882E1,-1.5955318E0,7.9206926E-1,1.7093796E1,7.144512E-2,-2.8393643E0,-1.4315428E0,2.3671722E-1,8.450655E-1,-4.343384E-1,4.2088342E-1,2.091727E0,-1.9776354E0,1.4948552E0,9.96838E0,-1.9428866E0,6.5324366E-2,4.8520894E0,-9.45004E-1,-4.576224E0],"categories":[],"categories_nodes":[],"categories_segments":[],"categories_sizes":[],"default_left":[1,1,1,1,1,1,1,1,1,0,1,0,1,1,1,0,1,0,1,0,1,1,1,1,1,1,1,0,0,1,0,0,0,0,1,0,0,0,1,0,1,1,0,1,1,0,0,0,0,0,0,0,0,0,0,0,0,0,0],"id":18,"left_children":[1,3,5,7,9,11,13,15,17,-1,19,-1,21,23,25,-1,27,-1,29,-1,31,33,35,37,39,41,43,-1,-1,45,-1,-1,-1,-1,47,-1,-1,-1,49,-1,51,53,-1,55,57,-1,-1,-1,-1,-1,-1,-1,-1,-1,-1,-1,-1,-1,-1],"loss_changes":[1.8783365E2,6.165243E2,1.5244327E2,5.9890594E1,4.1973346E2,2.0805267E2,1.935258E2,1.734153E1,1.2693624E1,0E0,3.3312732E2,0E0,6.2159504E1,3.416176E2,1.7696997E2,0E0,1.7299109E0,0E0,4.8825774E0,0E0,1.9049707E2,1.9945847E1,4.2820206E0,1.0650555E2,1.6166665E3,4.069473E2,1.01410866E2,0E0,0E0,2.6096332E0,0E0,0E0,0E0,0E0,3.6172118E0,0E0,0E0,0E0,1.1828918E1,0E0,1.8307297E1,2.2014188E2,0E0,1.3729828E2,3.5158302E1,0E0,0E0,0E0,0E0,0E0,0E0,0E0,0E0,0E0,0E0,0E0,0E0,0E0,0E0],"parents":[2147483647,0,0,1,1,2,2,3,3,4,4,5,5,6,6,7,7,8,8,10,10,12,12,13,13,14,14,16,16,18,18,20,20,21,21,22,22,23,23,24,24,25,25,26,26,29,29,34,34,38,38,40,40,41,41,43,43,44,44],"right_children":[2,4,6,8,10,12,14,16,18,-1,20,-1,22,24,26,-1,28,-1,30,-1,32,34,36,38,40,42,44,-1,-1,46,-1,-1,-1,-1,48,-1,-1,-1,50,-1,52,54,-1,56,58,-1,-1,-1,-1,-1,-1,-1,-1,-1,-1,-1,-1,-1,-1],"split_conditions":[3.5E0,1.605E2,8.78E1,2E1,2.5E0,3.75E1,3.5E0,2.75E1,6.475E1,-5.2781373E-1,5.60275E2,2.8310099E0,6.91339E3,3.4E2,5.5E0,-1.8477468E0,6.5E1,6.885633E-1,1.8E-1,-3.8434756E-1,7.085E2,4.5E1,4.6535E1,1.05E1,4.05E2,1.875E3,8.6E2,-7.808719E-2,-6.1427826E-1,1.055885E4,1.8375778E-1,6.212555E0,7.2221947E-1,-1.0231547E0,4.215E0,1.4593923E0,2.969679E-1,-1.4147419E0,3E-1,-9.739165E0,1.7E2,2.75E1,5.128139E0,6.3E2,5.91E2,-4.2946285E-1,7.101517E-2,2.5351965E-1,-1.3030152E-1,1.2626503E-1,6.275181E-1,-5.932906E-1,4.4845656E-1,2.990514E0,-5.82866E-1,1.959731E-2,1.4556268E0,-2.835012E-1,-1.3728672E0],"split_indices":[1,2,4,2,3,1,3,0,2,0,4,0,2,2,1,0,0,0,5,0,3,0,4,0,2,2,0,0,0,4,0,0,0,0,5,0,0,0,5,0,0,0,0,0,1,0,0,0,0,0,0,0,0,0,0,0,0,0,0],"split_type":[0,0,0,0,0,0,0,0,0,0,0,0,0,0,0,0,0,0,0,0,0,0,0,0,0,0,0,0,0,0,0,0,0,0,0,0,0,0,0,0,0,0,0,0,0,0,0,0,0,0,0,0,0,0,0,0,0,0,0],"sum_hessian":[4.793E3,2E1,4.773E3,1.3E1,7E0,1.4E1,4.759E3,5E0,8E0,2E0,5E0,3E0,1.1E1,3.8E1,4.721E3,1E0,4E0,2E0,6E0,1E0,4E0,8E0,3E0,2.5E1,1.3E1,8E0,4.713E3,1E0,3E0,3E0,3E0,3E0,1E0,1E0,7E0,2E0,1E0,3E0,2.2E1,1E0,1.2E1,7E0,1E0,4.702E3,1.1E1,2E0,1E0,3E0,4E0,1.7E1,5E0,1.1E1,1E0,1E0,6E0,4.697E3,5E0,6E0,5E0],"tree_param":{"num_deleted":"0","num_feature":"6","num_nodes":"59","size_leaf_vector":"0"}},{"base_weights":[5.511667E-2,1.1244081E0,3.232982E-2,-3.2896185E0,1.7637029E0,-5.011531E-1,8.1994824E-2,-2.2487276E0,-7.890154E0,1.0789191E1,1.3182245E0,-3.677324E0,-3.934434E-1,1.9310066E-1,-1.9958337E-1,-5.2352824E0,-1.5012879E0,-2.6942268E-1,2.8037465E0,-6.104735E0,1.4274803E0,2.466248E0,-5.4737395E-1,1.1533958E0,7.434996E-2,-7.161252E-1,1.9654678E-1,-1.8407516E0,-4.4703847E-1,1.7256607E1,-1.1177797E0,1.7384444E0,6.251929E0,2.0395494E0,3.3958456E-1,6.078354E0,1.7272166E0,-1.2965637E0,-4.0060377E-1,3.2630828E-1,6.994317E0,-4.6066E-1,1.5356301E-1,-2.046569E0,2.862817E-1,1.6613823E-1,1.0558813E1,-5.259332E-1,-1.05177164E-1,4.9355045E-1,-9.014748E0,3.5379257E0,5.142998E-1,7.9746532E0,-4.259796E-1,-2.6531124E-1,1.8600307E0,-7.3661023E-1,-3.7239373E0,7.9124603E0,-5.076124E-1,-6.160581E-1,1.5827016E0,1.6573284E1,4.605001E0,-1.1156207E0,-1.7621866E-1,1.2742423E0,6.934223E-2,-6.665541E-1,-4.4787107E0,7.311685E0,1.1917326E-1,2.605076E-1,-2.4556024E0],"categories":[],"categories_nodes":[],"categories_segments":[],"categories_sizes":[],"default_left":[1,1,1,1,1,1,1,1,0,0,1,1,1,1,1,0,1,1,1,0,1,1,1,1,1,1,1,0,1,0,1,1,1,0,0,0,1,1,1,1,1,1,1,1,1,1,0,0,0,0,0,0,0,0,0,0,0,0,0,0,0,0,0,0,0,0,0,0,0,0,0,0,0,0,0],"id":19,"left_children":[1,3,5,7,9,11,13,15,-1,-1,17,19,21,23,25,-1,27,29,31,-1,33,35,37,39,41,43,45,-1,47,-1,49,51,53,-1,-1,-1,55,57,59,61,63,65,67,69,71,73,-1,-1,-1,-1,-1,-1,-1,-1,-1,-1,-1,-1,-1,-1,-1,-1,-1,-1,-1,-1,-1,-1,-1,-1,-1,-1,-1,-1,-1],"loss_changes":[1.1677322E2,2.8798828E2,1.2443714E2,4.4509705E1,3.3959546E2,1.3539499E2,1.344388E2,1.8927574E1,0E0,0E0,2.0122658E2,1.6980336E2,1.7214522E2,3.5125827E2,2.48956E2,0E0,3.1137867E0,6.43759E2,1.50759E2,0E0,2.6367369E0,4.2890556E1,4.005536E1,1.6354108E3,1.1631844E2,7.0475104E2,2.1535066E2,0E0,5.2568078E-2,0E0,5.2615875E2,7.527932E1,1.18438995E2,0E0,0E0,0E0,5.2569313E0,7.880988E1,2.7978308E2,3.5380194E2,8.8494165E2,6.575285E1,2.2549054E2,7.5891565E2,3.5367795E2,1.7085918E2,0E0,0E0,0E0,0E0,0E0,0E0,0E0,0E0,0E0,0E0,0E0,0E0,0E0,0E0,0E0,0E0,0E0,0E0,0E0,0E0,0E0,0E0,0E0,0E0,0E0,0E0,0E0,0E0,0E0],"parents":[2147483647,0,0,1,1,2,2,3,3,4,4,5,5,6,6,7,7,10,10,11,11,12,12,13,13,14,14,16,16,17,17,18,18,20,20,21,21,22,22,23,23,24,24,25,25,26,26,28,28,30,30,31,31,32,32,36,36,37,37,38,38,39,39,40,40,41,41,42,42,43,43,44,44,45,45],"right_children":[2,4,6,8,10,12,14,16,-1,-1,18,20,22,24,26,-1,28,30,32,-1,34,36,38,40,42,44,46,-1,48,-1,50,52,54,-1,-1,-1,56,58,60,62,64,66,68,70,72,74,-1,-1,-1,-1,-1,-1,-1,-1,-1,-1,-1,-1,-1,-1,-1,-1,-1,-1,-1,-1,-1,-1,-1,-1,-1,-1,-1,-1,-1],"split_conditions":[1.85E1,3.5E-2,2.75E1,1.7E2,1.49125E2,6.825E2,9.5E1,1.015E0,-2.3670464E0,3.2367575E0,8.3313E2,7.6E1,3.95E1,5.44E2,1.1E2,-1.5705848E0,3.45E1,1.5E0,1.3109451E3,-1.8314205E0,9.3E1,2.15E1,6.0625E3,7.72875E3,1.7365002E1,9.77634E3,1.44077E3,-5.5222553E-1,1.7901E4,5.1769824E0,7.8658E2,1.714675E3,3.59902E3,6.118648E-1,1.0187537E-1,1.8235062E0,7.305E2,2.25E1,1.75E2,1.74665E3,3.025E2,4.5E1,2.082E3,7.1E2,1.022E3,3.24525E4,3.167644E0,-1.5777996E-1,-3.155315E-2,1.4806513E-1,-2.7044244E0,1.0613778E0,1.5428995E-1,2.392396E0,-1.277939E-1,-7.9593375E-2,5.580092E-1,-2.2098307E-1,-1.1171812E0,2.3737383E0,-1.5228373E-1,-1.8481743E-1,4.7481048E-1,4.9719853E0,1.3815004E0,-3.3468622E-1,-5.28656E-2,3.822727E-1,2.0802671E-2,-1.9996624E-1,-1.3436133E0,2.1935055E0,3.575198E-2,7.8152284E-2,-7.3668075E-1],"split_indices":[1,5,0,0,4,2,0,2,0,0,4,1,1,1,0,0,3,1,2,0,3,1,2,2,5,4,5,0,3,0,4,4,2,0,0,0,2,0,1,2,1,0,1,1,1,1,0,0,0,0,0,0,0,0,0,0,0,0,0,0,0,0,0,0,0,0,0,0,0,0,0,0,0,0,0],"split_type":[0,0,0,0,0,0,0,0,0,0,0,0,0,0,0,0,0,0,0,0,0,0,0,0,0,0,0,0,0,0,0,0,0,0,0,0,0,0,0,0,0,0,0,0,0,0,0,0,0,0,0,0,0,0,0,0,0,0,0,0,0,0,0,0,0,0,0,0,0,0,0,0,0,0,0],"sum_hessian":[4.793E3,9.9E1,4.694E3,1.2E1,8.7E1,3.99E2,4.295E3,1.1E1,1E0,3E0,8.4E1,1.2E1,3.87E2,3.08E3,1.215E3,1E0,1E1,4.1E1,4.3E1,8E0,4E0,1.9E1,3.68E2,3.38E2,2.742E3,5.27E2,6.88E2,7E0,3E0,1E0,4E1,3.4E1,9E0,2E0,2E0,2E0,1.7E1,5.9E1,3.09E2,2.97E2,4.1E1,3.53E2,2.389E3,2.26E2,3.01E2,6.87E2,1E0,2E0,1E0,3.4E1,6E0,1.3E1,2.1E1,7E0,2E0,1E0,1.6E1,4.9E1,1E1,3E0,3.06E2,1.7E2,1.27E2,7E0,3.4E1,1.06E2,2.47E2,1.66E2,2.223E3,1.45E2,8.1E1,6E0,2.95E2,6.64E2,2.3E1],"tree_param":{"num_deleted":"0","num_feature":"6","num_nodes":"75","size_leaf_vector":"0"}},{"base_weights":[4.2040147E-2,1.7899401E-1,-9.3284525E-2,1.338331E-1,5.5080647E0,-1.8834049E-1,4.4905767E-1,-3.7665006E-2,6.590003E-1,2.0930359E1,3.594767E0,-9.795739E-2,-7.873944E-1,2.014267E0,5.7555497E-2,7.888699E-1,-9.6716054E-2,1.3031324E1,4.8571748E-1,6.8194523E0,1.145413E0,-2.353498E-2,-6.3844454E-1,-3.3292964E0,-3.676544E-1,1.1977867E0,5.0370398E0,-8.523964E-2,1.2931949E0,-3.526643E-2,2.9376879E0,-1.7341213E1,-7.593137E-2,5.041977E0,1.6816538E1,4.1701245E0,3.863381E-1,-4.7830963E-1,3.5142868E0,-3.2581404E-1,2.3093149E-1,-9.8683494E-1,-4.3437728E-1,-1.5358117E0,-8.197473E0,-1.0467232E0,4.0823728E-1,6.454076E0,7.937331E-1,2.8894098E0,6.1477475E0,1.4943324E-1,-1.0498683E0,1.9370909E0,-1.0991908E0,8.8520163E-1,-2.635056E0,-9.329262E-1,3.6621878E0,2.4211826E0,-9.553582E-2,1.2340336E0,1.1935865E1,1.1963997E0,-9.436782E-2,5.265465E-1,-6.9708145E-1,9.995003E-1,3.8931084E0,-7.246379E-1,-1.5276504E-1,1.45346E0,2.6861265E-2,-7.325086E-1,-1.4000697E0,-3.2579058E-1,-9.921167E-1,2.695683E0,-3.0047274E0,-9.062311E0,-3.1587448E0,-4.7319782E-1,-4.191301E0,2.9127353E-1,6.5201607E0,2.8491173E0,8.634476E0,8.553735E-2,2.3717275E0,3.813371E0,-1.327179E0,9.565158E0,2.8448493E0,-1.672513E-1,7.717769E-1,-6.811213E-1,-1.6350676E0,2.8171632E0,1.1072419E0,-2.2866869E-1,-1.2061664E0],"categories":[],"categories_nodes":[],"categories_segments":[],"categories_sizes":[],"default_left":[1,1,1,1,1,1,1,1,1,0,1,1,1,1,1,1,1,1,1,0,1,1,1,1,1,1,1,1,1,1,1,0,1,0,0,1,1,1,1,1,1,1,1,1,1,1,1,1,1,1,1,1,1,1,1,0,0,0,0,0,0,0,0,0,0,0,0,0,0,0,0,0,0,0,0,0,0,0,0,0,0,0,0,0,0,0,0,0,0,0,0,0,0,0,0,0,0,0,0,0,0],"id":20,"left_children":[1,3,5,7,9,11,13,15,17,-1,19,21,23,25,27,29,31,33,35,-1,37,39,41,43,45,47,49,51,53,55,57,-1,59,-1,-1,61,63,65,67,69,71,73,75,77,79,81,83,85,87,89,91,93,95,97,99,-1,-1,-1,-1,-1,-1,-1,-1,-1,-1,-1,-1,-1,-1,-1,-1,-1,-1,-1,-1,-1,-1,-1,-1,-1,-1,-1,-1,-1,-1,-1,-1,-1,-1,-1,-1,-1,-1,-1,-1,-1,-1,-1,-1,-1,-1],"loss_changes":[8.886503E1,5.727692E2,1.24430084E2,2.129389E2,5.1490906E2,1.11081215E2,2.2048587E2,8.7100525E1,1.2414265E3,0E0,1.4225842E2,7.178545E1,2.8578223E2,1.7166519E2,5.1102345E1,2.1084299E2,5.954549E2,1.5714246E2,2.0892749E2,0E0,4.783765E1,1.20839455E2,1.4927879E1,3.191883E2,1.2266437E2,1.1805887E2,1.8017487E1,5.9013657E1,4.8342663E1,2.1052559E2,9.595712E1,0E0,8.1691666E1,0E0,0E0,3.2728455E2,2.1856706E2,2.125719E0,8.721123E-1,4.944285E1,2.1276883E2,7.2770615E0,8.034483E0,1.8835535E2,1.4951294E1,2.216501E2,7.602206E1,6.8403625E0,6.126122E1,3.2332783E1,7.437482E1,4.1517273E1,9.891632E0,1.4408569E1,3.760605E-1,0E0,0E0,0E0,0E0,0E0,0E0,0E0,0E0,0E0,0E0,0E0,0E0,0E0,0E0,0E0,0E0,0E0,0E0,0E0,0E0,0E0,0E0,0E0,0E0,0E0,0E0,0E0,0E0,0E0,0E0,0E0,0E0,0E0,0E0,0E0,0E0,0E0,0E0,0E0,0E0,0E0,0E0,0E0,0E0,0E0,0E0],"parents":[2147483647,0,0,1,1,2,2,3,3,4,4,5,5,6,6,7,7,8,8,10,10,11,11,12,12,13,13,14,14,15,15,16,16,17,17,18,18,20,20,21,21,22,22,23,23,24,24,25,25,26,26,27,27,28,28,29,29,30,30,32,32,35,35,36,36,37,37,38,38,39,39,40,40,41,41,42,42,43,43,44,44,45,45,46,46,47,47,48,48,49,49,50,50,51,51,52,52,53,53,54,54],"right_children":[2,4,6,8,10,12,14,16,18,-1,20,22,24,26,28,30,32,34,36,-1,38,40,42,44,46,48,50,52,54,56,58,-1,60,-1,-1,62,64,66,68,70,72,74,76,78,80,82,84,86,88,90,92,94,96,98,100,-1,-1,-1,-1,-1,-1,-1,-1,-1,-1,-1,-1,-1,-1,-1,-1,-1,-1,-1,-1,-1,-1,-1,-1,-1,-1,-1,-1,-1,-1,-1,-1,-1,-1,-1,-1,-1,-1,-1,-1,-1,-1,-1,-1,-1,-1],"split_conditions":[4.797E3,3.3167084E5,9.70275E2,3.865291E4,1.5E3,9.5E1,5.002E4,2.15E1,3.43E2,6.279108E0,4.237E3,6.21995E4,1.7085E3,1.45687E3,3.35979E3,7.2492004E2,2.25E1,3.8E1,5.02E2,2.0458357E0,3.8758E5,1.1625154E5,4.5E1,1.375E3,1.9E2,9.89095E2,7.6485547E3,1.66871E5,3.380655E5,7.65E-1,7.1689E2,-5.202364E0,2.45E1,1.5125932E0,5.0449615E0,5.1092E4,9.5E1,1.4205E3,4.47E3,4.5E1,1.683E3,9.59105E4,1.45E5,4.7208047E3,4.083325E5,1.823E4,3.910382E5,9E1,3.1149852E4,6.5E1,1.0924045E4,1.03601475E6,2.38053E5,1.409972E4,3.96349E3,2.655605E-1,-7.9051685E-1,-2.7987787E-1,1.0986564E0,7.2635484E-1,-2.8660748E-2,3.7021008E-1,3.5807598E0,3.5891992E-1,-2.8310345E-2,1.5796395E-1,-2.0912445E-1,2.998501E-1,1.1679325E0,-2.1739139E-1,-4.5829512E-2,4.3603802E-1,8.05838E-3,-2.197526E-1,-4.2002094E-1,-9.773718E-2,-2.9763502E-1,8.087049E-1,-9.0141827E-1,-2.7186935E0,-9.476235E-1,-1.4195935E-1,-1.2573903E0,8.738206E-2,1.9560483E0,8.547352E-1,2.5903428E0,2.5661206E-2,7.115183E-1,1.1440114E0,-3.981537E-1,2.8695474E0,8.534548E-1,-5.0175395E-2,2.3153308E-1,-2.0433639E-1,-4.905203E-1,8.45149E-1,3.3217257E-1,-6.860061E-2,-3.6184993E-1],"split_indices":[1,2,5,2,1,0,1,1,1,0,1,1,3,5,5,2,1,3,1,0,2,2,0,3,0,5,4,1,1,5,4,0,1,0,0,2,0,3,1,0,3,1,1,4,2,1,2,0,4,0,4,2,1,4,5,0,0,0,0,0,0,0,0,0,0,0,0,0,0,0,0,0,0,0,0,0,0,0,0,0,0,0,0,0,0,0,0,0,0,0,0,0,0,